{"layerSpec":[{"a":[0.0023489766140321277,0.015371475811243063,0.002492217115539062,0.0023988763210152976,0.002312651571075765,0.002191140813039783,0.0017798543400016414,0.10047999922323625,0.00217729979897531,0.002213442511654445,0.0024791931780398964,0.0024502648208887313,0.0023373850289379215,0.0019341254493139026,0.0022844027375752943,0.002423822592182799,0.0024341021589979763,0.0024076311640816223,0.0023751811015651023,0.001852583001592231,0.001943354135508823,0.002132486972355401,0.0024654595819136116,0.002479525677937417,0.002252373962627923,0.0022148609484675106,0.002304296070197793,0.0021372502038293347,0.002254202294231302,0.002299486679217188,0.002085081777331502,0.0023619551996837563,0.00210597077556154,0.002028164802259086,0.0022821620395718483,0.0023321426644473705,0.0023744305021079237,0.0023343919592023576,0.002476301543331431,0.0023809104187549764,0.0024383355404303756,0.002384263817778436,0.002530127064367003,0.002306827287652509,0.0023785332575285384,0.0022661946742957703,0.002128378577247165,0.0022792403553247476,0.0022734582863447655,0.0022902189024870093,0.0020209573231374407,0.0022544342780061156,0.002163872028494503,0.0024367337781818787,0.0019228553529079238,0.002737751554818849,0.0021861543732371665,0.002422313611379068,0.002506166388099096,0.0020407411229953105,0.002325381411427369,0.002579434611757653,0.0023587369125467957,0.002254145571023391],"ar":[0,0,0,0,0,0,0,0,0,0,0,0,0,0,0,0,0,0,0,0,0,0,0,0,0,0,0,0,0,0,0,0,0,0,0,0,0,0,0,0,0,0,0,0,0,0,0,0,0,0,0,0,0,0,0,0,0,0,0,0,0,0,0,0],"b":[-6.061977511744062,-9.301056564621675,-6.031534791216084,-5.9732091546760495,-6.250516727774297,-6.090058463137923,-6.243239736823222,-4.950223579884129,-6.154952854992068,-6.029260305723251,-5.934453874383197,-6.08689215125432,-6.076597724962734,-6.31530418964287,-6.476671566250514,-6.062906264070056,-6.108255113458088,-5.905335939349024,-6.1067077811030535,-6.294848686367946,-6.247865706389028,-6.245647132730434,-6.19489040145278,-6.00848340259023,-5.968851340256536,-6.151659242715587,-6.01878742214289,-6.180582835751616,-5.970532590415932,-6.018917021727213,-6.262718762127116,-6.096366600983238,-6.447522241938984,-6.166305895231812,-6.026563571475138,-6.106498153106146,-6.021400891525481,-6.153884971240657,-6.00511117012967,-5.946809261792255,-6.000643854657215,-6.0297723308996725,-5.906440884462095,-6.084100655584429,-6.016392205587038,-6.131412965283241,-6.109683216984626,-5.999499425934532,-6.565948480556091,-6.013292131483366,-6.0577425151699735,-6.067298752012222,-6.057787915344905,-5.969230340824537,-6.31172726022263,-5.887789744824149,-6.053191050770416,-5.966950570791788,-5.9024835002009794,-6.171751207672887,-6.089422995422683,-5.921974752927592,-6.04714261260341,-6.118353944408298],"δ":[-0.012809697583512972,-0.6023531354033294,0.0013567529086907842,-0.01749363286620894,-0.03984511586928689,0.008985160183513738,-0.0411298959521645,-0.6389677501168144,0.02594972400393624,-0.004051644574339572,0.0015572616725902282,-0.0236482943169831,-0.008225457001746116,0.04904989423062215,-0.0602903424236335,-0.017338097110643616,-0.023440088396598002,0.01131916885610287,3.481052387146661E-4,-0.06319724814890158,0.04856562732815563,-0.042435463133936265,-0.04000752579494873,0.005161774410426264,0.01739765910271097,-0.005159071867384188,0.015047259099585526,-0.007142300419139588,0.02285044422595616,-8.22406128504022E-4,-0.04537504118800579,-0.04576725087441371,-0.07611457415758147,0.010688761544184605,0.00298153086718471,-0.03329140928461697,-0.011626309317749724,-0.03959401055987488,0.0013305935585222837,0.011121865622164193,-0.025391868294763337,0.0013687198398546953,-0.003921345161234541,0.0038010061756243952,0.006604292539817758,-0.04556068574042887,0.03555897025438252,0.005854978765150277,0.12054289141441665,0.010805376625535348,0.03651943096114251,-0.013957873648944002,0.03152743251479104,-0.005836583554346078,-0.06586019994613862,-0.026583676060730168,0.02428335873428202,0.0054594356812762085,-0.004040563734853913,0.030902069984336984,-0.018919448844962092,0.7937552307784296,-0.00962180377911286,0.034480144391716525],"w":[[-0.2623767570604278,-0.23805879502629618,-0.2475533078881926,0.29980960186671196,0.26103095665820175,-0.08444629694810203,0.031125436317740857,-0.22096820514320392,0.5295578350119466,0.3481743081409329,-0.1639553571737502,0.04398248718701883,0.4105055993505563,-0.03514532777716664,-0.13495013821382057,-0.02277197370327391,0.42866303244932913,-0.18986318586099693,0.36163142760025624,0.25996444169654753,-0.40521889628065844,-0.047886676651493265,0.30230307026033715,-0.2202817556595461,0.12453214309770434,0.30987750258162533,0.2136362926068751,0.2716670269903047,-0.2913300011828122,-0.21133812570621688,-0.19858732413017824,0.48912635919359415,-0.07778340458275569,0.21828544124127658,0.399596350702896,-0.24365189153660002,0.37781980878642724,-0.5491123695354683,-0.3648170944746088,-0.2555658695269746,-0.2882823022277801,-0.2677210919980365,0.01447101848114275,0.40894519573610777,-0.3729531639342273,0.10072853744742666,-0.10720883967759622,-0.41161482127131627,-0.46365415815018163,-0.3944074690914295,0.38602075414834275,-0.28262453100907436,0.18146129886447757,0.15646293607495484,-0.12324886042388013,0.4294300624901554,-0.11399674185549091,-0.41797266428580865,-0.24631818677041062,0.3853085253363236,0.43656443627929,-0.37426375824974656,-0.5433015775921297,-0.4179258708747442,0.32687284092261815,-0.37977218247892686,0.3807087833720618,-0.45615069370302613,0.036235918735045426,0.19958692774921627,-0.29906864956916124,0.46000160396469725,0.09722169239472318,-0.2396298719979359,-0.43362544406029274,0.09356259873599934,-0.21156867109993735,0.49417485070431777,-0.41449492535227633,-0.11742231049143213,-0.2390992590615814,-0.4780030102537362,0.2650450299656791,-0.31695210073621644,0.3539515901553649,0.25495322391377434,-0.33655780593666357,-0.30693892056762506,0.4114547051476129,0.13247884499918935,-0.39353336096882735,-0.11829633584432026,-0.25979956631048373,0.4253167878241355,-0.07305782052224409,-0.392320941220427,-0.1095220147635886,0.20108347254718,0.3667817895552079,0.029512399250423756,0.4269034976181904,0.166508369660795,-0.27485762190213026,0.24911520465137005,0.3315057008971803,-0.15507046536743602,-0.43677428373057897,0.041848550214017524,-0.2693977020966319,0.2518230878823975,-0.33983999169099677,-0.09901838925413396,-0.14606907000869387,-0.09382251536054928,0.36386851747390087,0.08766460288358781,-0.2654313613694802,0.2517981467172226,0.12191796509615309,-0.31189404916762287,0.25816863521407846,0.20650214971677583,-0.10121546330659974,-0.5203812931380997,0.43525183609724705,-0.5107886311203897,-0.12664327473295572,0.08074144585514315,0.1606382178178114,-0.2986761024069132,-0.1059703377091702,-0.3679859622810261,-0.25863357970827255,-0.31627479607417847,-0.13527287897588794,0.3749449927127996,-0.3777948599119241,-0.08516001445870039,-0.3753704426200212,-0.37490181819996277,-0.11801357209313197,-0.4467457762022475,0.014487977679238566,-0.4066979634799922,0.34871135144288407,-0.37240204182561387,0.26903131471555175,-0.0932728703650044,-0.4893734132873495,0.42665270691668844,-0.1393462509815745,0.22531360302613898,0.3060869634118756,-0.24370554762075197,0.12257848614647057,0.37914716319533315,-0.5575677586657332,0.19644629188029583,-0.246683231415229,-0.46106246852804494,-0.2915879527878176,0.26841233812274135,0.08946192634305206,-0.07921600325385904,0.44258427844476467,0.40636379549465285,-0.07051956716743545,-0.193000855610706,0.13977666182658713,0.4026026972070695,-0.17488227834428535,-0.1272465250022915,0.46397692862816015,-0.482569151425493,-0.05271197517334944,-0.05621856674527658,0.15332641608591796,0.41507955032227783,-0.4797962660057086,-0.13609098315939472,0.35232636043535986,0.2770369916790706,0.14060284154393063,0.4422059135171099,0.11998686456594079,0.44713510744103907,0.15097130776599543,-0.1892867052343402,0.24133850268652202,-0.051257017542023484,-0.39626703283562037,-0.33751780938771436,0.10048544620748291,-0.06285334114979844,0.510899908448938,0.27593120755477124,-0.36145715489656033,0.12054354411040097,0.3038516769391619,-0.32803206236507565,0.13440650916827976,-0.3097298647351989,-0.1646421004112358,0.4073040335234722,-0.29614035480680095,0.27181019931460365,-0.26808412517678937,0.23118500538488582,-0.009416522227872422,-0.3902163646755323,0.0966267238379459,-0.47891745840665834,-0.06740132092433021,0.44558900808200225,0.17711620392678257,0.2591863483321359,0.12864001071542983,-0.18891964516982224,-0.059766869432184885,0.37690446361860447,-0.2721128656533688,0.1692067944490636,0.12343685148513531,0.09628227930754336,-0.3032288064028738,-0.3608035598944077,0.26480140335436564,-0.2674741509108155,0.3056841144411957,0.11277278968921625,-0.21979615340115208,0.23972693626583283,-0.34752283399849265,0.015727581848365365,-0.10392516801175328,0.3615021544204399,0.10634718162738829,-0.12051979441964665,-0.35867958008488937,0.023791351021750427,0.10573954782453643,-0.3331573432440779,0.5303143915111241,0.07973175938573153,0.04907142661315162,-0.11820695053047328,-0.33267700759359065,0.02337363138473309,-0.18814261862557632,0.3220614103438774,-0.2964612573015393,0.21180051401941025,0.176744688585775,0.18178210343769877,0.16322602762826738,0.3036105359250759,0.4407828260680916,0.21592351770099188,0.20347284612045693,0.32496785071538153,-0.10007918424406449,0.1340970778837573,0.438037873640492,0.021236659514288936,0.1257456428834717,-0.49606317520654036,0.4045219948268599,-0.08738718855460703,-0.49203119933180695,0.31160077129944247,-0.2885923757355568,0.1420403234158908,0.18584642359244846,-0.17154460571070593,0.5785558998170526,0.5139170973875179,-0.08335765552016469,-0.2582147154209659,-0.403604240102845,-0.0017050433637438023,0.13033320206367474,0.2759932552669003,-0.4164504625795993,-0.3768357052138983,0.480725353194874,-0.4706887605566318,-0.14377350905976277,0.2647275660007879,0.03930919959137349,0.4126836650681609,0.04259293146470354,0.30302391385083016,0.29141743865567526,-0.3457016665822756,0.18591835546675864,0.4230948940284867,0.06198014366855879,0.35195963958587645,-0.13310931487369904,-0.25953997113164173,0.5170206700288466,0.1071872917090708,0.1396858120689626,0.42014859677280625,-0.2120952541382781,0.36552986810325694,0.16351073270179908,0.2825984689726783,-0.03041953720006634,-0.002867726141716222,0.05213295557926322,0.4199634327108688,-0.12271142129429206,-0.12212176826841725,0.5304787651252377,0.11798235913532377,-0.03353541403459601,0.058667410689343204,-0.24484902630899905,-0.1286098735526815,0.3619692361758707,-0.19210455861880824,0.4292525750922525,-0.10919865963747286,0.07610279987475921,0.16687987048503253,-0.5053437361488331,-0.3611545178348376,-0.40212248114725385,0.19790984290121735,-0.44593087101054757,0.3708734428028159,-0.36232563126297596,-0.4995930053947884,0.28203301237928124,-0.5241860876012843,-0.5697342501108774,-0.045420847015281186,-0.13122730699006455,0.25244633056028987,-0.14086112633533274,0.21355506667557406,0.31247240135015414,0.2531456779399383,-0.2916625180487984,0.1812317835129138,0.3225501078838647,0.008694053018165115,0.49035075708314674,-0.022193267475136468,-0.17130238753282,-0.26596973399303553,-0.19957594577223814,0.4107412794789744,-0.35861975445667826,-0.0010382741701618673,-0.23380924159365638,0.2409029458844935,-0.2928274927049969,0.41865831899016565,-0.5035570283651495,0.2049489175400177,0.007821068443428938,0.2555834650105215,0.11047346607555682,0.3607902185745481,-0.38917720589859883,-0.1759967711892041,0.0705149656481595,-0.06992292635301608,0.44466362375321605,0.3761047392334994,0.10752194684290567,0.015132146636012471,-0.021487498685821994,-0.10586400196377102,0.011519702015074582,-0.027499886502493184,0.1875709180022831,-0.4042549573727531,0.3949463624168056,-0.12021386429504881,0.4035302685028893,-0.36139326566541297,0.31355229704051724,0.4632676761955641,-0.06833613362884641,-0.0592757501021005,0.48233743171377147,-0.4765601920666708,-0.45178950688314196,-0.07245622510353675,0.366383742401383,0.048791578514395445,-0.4841640046935412,0.06729073471298559,-0.08292247718689133,0.149355467570495,-0.13713786665528324,0.17100810692443444,0.2302203930075049,-0.3771929323991827,-0.4577052251328264,0.24656947442347157,0.3980403055056209,-0.11679114287713804,-0.25609486602489345,-0.43914814476521163,0.09292096256844014,0.42189222729939985,0.06572408123168469,-0.3431134137185065,-0.28319193379086643,0.07999536055466243,-0.1035315358100695,-0.10528661640752704,-0.3437787469994531,0.2732979952644828,-0.2499952671259555,-0.04213485135966774,-0.27311232840823113,0.3367777785166906,-0.33111032623932574,-0.1889332220922571,-0.042844263155241556,-0.3241596642478731,-0.09983867485500268,-0.37043594285039555,-0.35011091181963744,0.45503421331472743,0.47729726898232167,-0.3815610573562889,-0.33747675951254624,-0.22652448214422896,-0.15619812370434727,-0.4854993677793342,0.07332848619979257,-0.19682716238389017,-0.15822068167604267,0.06926915558149878,0.20600286125590492,0.17581845178797212,-0.11503517492708686,0.25028177577722316,-0.10626266998171903,-0.3383925620277859,0.10633418760648287,-0.17055323548179607,-0.4758050298333274,0.24503645490465645,-0.2390613912364499,-0.31316230836258574,-0.20486423380766394,-0.029288298960919154,-0.4636896116880052,0.1460821240355625,-0.2961283059832505,0.43972214115803304,-0.033321038403414306,-0.14554703981943526,0.2750349296784457,-0.28247264731479477,0.42391652473260366,-0.2421595510183463,-0.10689673602334411,-0.4648710124074399,0.29180380019788205,-0.3476608337220773,-0.37102713870436294,0.02414541782496252,-0.14996133654405563,0.2309196067988313,-0.2619409876260593,-0.22154880343795694,-0.47914584115328634,0.31618745407041554,0.4208424097605313,-0.31798276617752397,0.19123504748557207,0.08835246470548186,0.1701131752893608,-0.23939593567312148,0.20573577414008737,-0.5113581075775006,0.42030444494762,0.006291248471931696,-0.10444762018356829,0.40888953143519263,0.2923587446217512,-0.39381820456519956,-0.11954530772617976,-0.23239849942587584,0.004537567046625636,-0.1323279095927819,0.29897686261849693,-0.20083465321667915,-0.1312452920893544,-0.5168995575696905,-0.07332620898019157,-0.00970007810572677,0.25759867087607563,0.12594736190159023,-0.2549012545499107,0.09172640896775573,-0.33807381349296206,0.0674112737218554,-0.337712945373716,0.03385619000991784,0.17697458429991939,0.012667426870378721,-0.23825951189803676,-0.003975739183080832,0.5142045654284062,-0.442090519350149,-0.050901610601897025,0.08317313855905481,-0.197212301309841,0.11476622580810875,-0.14600168061426616,0.21985285122761725,-0.21482758552170728,0.2294768723460599,-0.45491824825082,0.2154618010142464,-0.06131694424998615,-0.28587108382828386,0.12687715368329766,-0.2865724117696878,-0.38448515151276147,-0.03427686656648304,0.08460244313412928,0.038457708399633195,0.46752897303973434,0.23831505347235105,-0.06282305364416448,0.16226512824524061,-0.26637216139236775,-0.035400551905318475,-0.46734201835262573,-0.31622726638043086,-0.4429935678736921,-0.39158578257808335,-0.5333425771814894,0.005698477702502056,-0.17348138616023798,-0.3403239833496256,0.09293160291383096,0.35223308936121595,0.16518035765287323,0.06565593808487018,-0.3093200071694486,0.3056797198328618,0.005368084816872956,-0.3771850017938358,-0.21212222468171316,0.3894525686077213,-0.2195527280276654,-0.43010899186152785,-0.37369794205544327,0.4936393121490312,0.3076184511420641,-0.3283995793333643,0.3869791006475175,0.0024868311601926748,0.0170354022907837,0.036284873031501824,-0.22746303716324037,-0.15524130061220617,-0.06309764416800842,-0.24293665024529107,-0.27541096105266893,0.04971461126491928,-0.2918143696188166,0.32152619389578624,-0.07734938476083701,-0.3027761765788503],[0.29611646647864887,-0.2767628088039877,3.715144204313916,0.9859985994880963,2.155889366677222,4.906553660761345,3.083437923094632,2.003826447720979,2.51360550187978,-5.108655760423137,0.3262414229789088,-3.073865460961504,-3.5489246849972624,-0.03605417996332552,-1.9439371873370577,-1.3476660574824866,-1.577524561000766,-1.5203306741954818,-0.5372073219278529,-1.2197798924225447,1.354779327574705,0.054603724365329336,-0.17242237443920388,-0.1896778327755897,-0.5170821000617982,-2.16214034296204,0.6495413588294408,1.957028365801335,2.0832781478045583,3.389660627224361,1.891310750275501,2.2819466227508043,0.9509980352819588,-1.746777280262169,-0.42475654052537876,-1.6987875039605074,-1.9879060701380464,-0.448971112069583,0.0076362978370365245,-0.9673396135151544,-2.050949803597624,-1.8184186723944251,0.3489754913421356,0.13792499376154457,1.9237668997784043,0.6005747793596297,0.3190144011971288,0.3087424002808052,-2.875845185013529,-2.108851625019861,1.3807742838098074,1.345669359499456,3.500964514308932,8.408634384512599,4.583343888250354,-0.40989503299497293,3.07629328899363,-4.540566880513183,0.6327465602899784,-0.19406835738052738,-1.7864427151750775,1.3043153715897804,-0.4813165367770891,-0.39713128205848813,-0.6688267802067915,-0.24622122894098294,0.6914557578375031,0.743063733195064,1.5050304836742372,0.9658051964002299,-0.5101584489767857,-0.7164357805252601,-0.21945918167722053,0.08996785006119105,2.1953399118047905,0.4830924123560957,1.8275924391526912,2.1235676266937205,2.6397930966153385,0.8009519124453337,0.7612068487987662,-2.031129473988362,-0.18370529009329634,-1.8006342145842034,-2.877163864440984,2.3111003997616066,-0.8383728768952053,-1.1489010438236198,-0.5896803303374046,0.8612340417505273,0.85721403537295,-0.34538697452177525,1.7854400086899642,0.8634945624996285,-0.7795737046691242,-0.047790701902889525,-1.5727667213784449,-1.7919771724576115,2.8092465882842714,-0.011817695507457779,-1.445607085007819,1.4251744075454877,3.1272419036426333,-0.6619219344913008,0.6597870575610727,-5.319232104368064,-0.13927144381356077,-2.9663704496050856,-5.927684991517996,0.40490061643528363,-1.699559598422424,-2.3120318717986548,-1.5703334121029378,-0.8885719593206091,-0.8189154106687888,-2.0294076732896644,0.59894851175883,-0.519964238853449,-2.2801532639648534,-0.9928830241987858,1.2565737858099877,1.6429504996292337,3.5553099389707783,-0.655252252197192,-2.888500532261906,0.46029199683709227,3.369410623880677,-2.5447871378879316,0.6091590607003653,-3.6733785633427725,-8.772623811569916,-2.9289965488706287,-2.9387963400949704,-1.3198544737125908,-6.849150434854649,-3.0385093592194945,-2.176157613519287,-0.16245213817456364,-1.0036279393691063,-2.3539107235545287,0.7274888650823689,-0.3871220797060806,-1.6261305353316209,-1.0842308196399997,0.25570166319997706,-1.5584402356366696,0.7891926113689587,1.9991449199425582,-0.8423202123441563,0.849989896526584,4.132613052668301,0.37392368218163796,0.18725535422919523,-0.6982912739206644,-1.2155753084919112,-1.9223097260585258,-3.301476723911537,0.41837968460730884,-4.907026536354481,-3.6022665434306775,-0.42078102092212843,0.7802206249043242,-1.4324216101985756,-0.8979345734400443,0.8544260855737619,-0.16560268504418083,-0.7536198368428962,-1.9077392919075093,1.029356075943041,1.292801832368898,2.0333343353258893,1.2285974588220423,1.482373090575381,2.3821977833039636,3.172134693331814,0.9077287552564478,1.6994221638060518,-0.3530839710548097,-1.3110994216282368,-4.06810695056931,1.8926185270575486,5.648623875016034,-4.570242658959129,1.53138808485143,-1.4270401126519445,-0.7916816048007692,0.37370551063526475,-1.9253074104816816,3.31514990147485,-0.6438170764519103,-1.1511955653500996,-1.0247383561838164,2.894508018710736,1.975445952769319,2.5882539574033228,1.4273402369953505,-0.19483841817787534,0.13302775618957083,4.816515884059054,1.178914630536687,-0.050009308447442814,0.866730075899463,0.6577026846501124,-5.772603284197226,0.21457194780773534,2.7996099567339,-1.8044681877259472,-0.3137151508693711,-0.3709544267096354,-1.7934261202763464,-0.8399726159863101,0.46148552475131055,0.8599139329288361,-0.3001511254785671,-2.335855073377636,-1.3532729661105736,0.8385392624395728,0.6049002317167663,5.092536965258198,0.08578576708780047,1.3967073050799468,2.4189042532887353,0.1937226324806496,3.532529576426004,3.2362440441804625,0.5764480928007332,3.291033921387102,-11.275806748897732,-7.059665246541594,11.74934932323936,-2.0562547686187753,-0.555685737948657,0.18236181002917126,-0.8983960889935959,-0.6110009110346327,0.1595080309236419,2.8659020369225106,0.032336694825714093,-0.801567672230297,-2.0757974454861325,1.2019468157233701,2.4390974519379838,1.850367793790885,2.2270156228624525,1.1293348636029852,-2.295098921850683,2.9467368451641573,3.432873546451779,-0.08333403135241281,2.4337145486747813,7.999400106520655,-1.081118754696602,5.527013584283868,13.821222320345314,-1.009915630314032,-0.6988469952835435,1.8213942466981616,0.03440602315180255,0.024198198097211708,0.8483394849503424,2.3124405139578768,-0.9723155493546722,-1.8547841836202577,-2.3328681776364264,-1.0289573532927685,-0.9960859048761089,1.7922438463657822,-0.39891352535142255,-1.5833880703223937,0.5948040747828499,1.6075322639692788,2.5864389936502805,1.9197489773018144,0.6793252631643131,9.29919805632099,-2.8138104355474143,-1.232967274344928,22.310608424617847,-1.5290325197236792,-0.6530153414676259,2.122391464398329,-0.7119595896123868,0.2143766278743225,0.6920602029017322,1.647650081742825,-1.6359426979514755,-2.0921428289285764,-3.406096258405855,-2.5754062611154365,0.8458406735575502,3.6458968456623255,-0.6013918903292561,-0.9770847200602039,2.354967791454711,0.5377829449564616,0.905541438739166,1.0969555828975581,1.3895677289395392,3.6069111393753834,-3.325645528118241,-0.3766501715698538,17.283982042425414,3.796100656077228,1.8584352185821618,2.9543003873050093,1.2936288272353593,1.8531760815990994,1.151456784445234,2.501755977312411,-1.1902687255880804,-1.5152488435428595,-1.9401553480897433,1.4640200031698436,-1.463207653598573,6.844379824869026,-0.9782264581549679,0.32023566801256825,-0.4650494890151947,-1.8865008023210221,1.42678255468722,-0.990986428504291,-0.16304601661895587,4.728985956006302,-2.009702988205291,0.963529232881787,6.3819258368698115,-3.033724280326426,0.47207780879125133,2.5014399939185457,0.3675125306645857,0.6707797308452118,-0.4730316854073479,1.9257267339075257,-1.3712220183753683,-0.8320028215360191,-1.359527611379645,-3.2138221935577036,-0.6244531760139618,4.407917582062244,-2.1188062354299158,-0.9729435292665508,0.2997275712052229,-1.4493500759657016,-1.1987798678646355,0.2965611447154207,1.128191587464385,3.4086273527564117,-3.7064121238583594,0.11100994731009603,18.957844135053815,0.08302038640928354,0.4987985254901788,0.7016254710855535,-0.33385793563001576,1.3372742138753229,0.3782425313792944,2.3927519625024,-1.0170271005246097,-0.7889829958873307,-2.6082422652417665,-4.193744506349045,-0.7145973855052443,3.3492335943039735,-1.411708257129434,-1.1039356618268183,1.830800365480058,1.0507867250483984,-2.602195361489221,-1.0632360490939727,-1.0443458527112892,1.8782351478937407,-2.40671533986445,-4.863648306348966,7.2496044420406225,-3.6182026951555275,-0.9813639563639756,2.438343840556806,-0.0743421178470365,0.15052796009512795,1.1119256745556183,-0.3576857690319489,-2.262848283522873,-1.2275430298986487,-1.316356749695405,-1.3450798592536113,0.1513354434944913,1.191391342533881,-2.9787753402383412,-0.48541020968119825,0.6549116516413344,3.1454009369641343,-0.556191144266907,-0.6615523636283769,-0.30895248216525034,-2.346830754913416,-3.559310921584,-3.2270180707357987,4.42008002852594,-4.512891585915519,-1.3194938046879394,0.5321985578292139,-0.18585618926161332,-0.22439683462342466,-1.6779502445292882,1.7722533769173376,-1.136519299787265,-1.5662200686713192,-2.2383297860260645,-1.1991139259033117,1.3839424956746962,2.8534419683924463,-2.6873436433582976,-0.9549882875743064,2.6436185056210713,1.1091483732182768,-1.2397135703646796,-0.14297815548510445,0.9259927896988124,1.7827829188269375,-3.4146906396949563,-7.191847437191033,1.4109113584078536,-1.238953400036198,-0.9310686183769541,-0.9807228871980758,-1.4393677185406601,0.1357990060669001,-0.17119871655686728,-0.6162224208718995,-1.8676653006975172,-1.5935471329969968,-2.206875058508877,-1.3302255125359428,-0.44681974730959784,3.534222723936107,-3.20388634683055,0.05222212326385303,0.584669153253502,-0.9833721814058939,-0.5548809737717839,-1.9753368616062454,1.0411368187662506,-0.13868677097368204,-5.080099882680423,-4.83852029873589,4.1410005074121,-2.1416414100353514,-0.598454208225899,-0.02318208851134914,-0.9922826087839193,0.18784278112537048,-1.3302212609124795,-0.04238520767546355,-0.32122641546114533,-0.41079129432222455,-0.7879409556828737,-2.415954470099007,-0.24642624851778183,0.29799388232476726,-3.5121699680928558,-0.8588593206141966,0.9362048867666375,1.550230902841631,-1.6363792368340209,-1.1750702634192953,0.8896275228812555,-0.8142867233386526,-3.40784211985068,-2.93498961236874,4.271614598584946,-2.9373710929190526,-0.8323554238586697,-0.09879262788936324,-0.16068279349316938,1.7307624728046807,0.8409484127466038,1.3394209239255845,-0.2094583029312211,-0.7040151679009709,-0.7465108538302616,0.08565623258614107,-1.4219371226000137,2.030872695363889,-1.4075106158605555,0.19740894669475714,0.9409780128238118,1.4205774058877976,0.7499550151385099,0.07022837570175823,0.9766042581763829,2.021078913562247,-1.2631343162095994,-3.430665999301509,16.031417309406248,1.0106926573657409,-1.2906591130819793,1.4095083288665833,-0.309560617143263,-0.6526689884499769,-1.400178295179087,1.7711724488982943,-0.5277461556442387,-0.58729229920824,-0.10999748692552112,-1.9634652472161702,-0.8999794580824193,3.572145376775661,-0.5212476330282872,0.31047545469944704,0.4878849342993041,-0.44702239691696893,-1.1440823242147906,0.682819019557089,0.8429667678630837,1.9106165490062492,-1.306954396280041,-0.1652416313451816,7.226605609793086,-3.0546841850248456,-1.6141332098986436,1.3008048459029087,-0.3880282403718066,0.9256047647396473,0.39064117978620183,1.509246363299002,1.013550754754967,-0.8189768618396782,-0.7456840606949969,-4.901886008550571,-0.47722427017102015,1.2871167525713507,-0.11190303583370459,-0.09705212667251605,0.8966709675380393,0.685560499348598,-1.7631656754134142,-1.8747212132212068,1.1920114183340043,2.800529655612294,-0.38217443629429215,0.22262561784588783,3.465751388409002,-2.584253968629655,-2.0158541474256655,-1.1774359737719082,-1.1464426518665563,0.12442169401997348,-0.4995392091892098,0.8102466558549902,0.8810985132471361,-0.1420648607475781,-0.6511156135675907,-2.956187040584455,-1.6642307674074341,0.8151041520838065,0.11836228755372169,0.8230005296185732,2.3964057037086195,1.8115432326475103,-1.6200843101840028,0.4698081677299853,1.021633215442735,0.520931390040391,-0.8100765214485834,1.2283191839744239,8.842847133427348,-2.709843569037794,-3.209332175303519,0.42076263280429016,-0.9088170051196013,-0.2013967328219682,-0.7578955395881302,-0.1371464242900219,0.9429048714644331,0.1746871142544029,-0.5398683014787083],[0.3003416720936026,-0.2608981221861998,0.24624809139519066,0.28282511384214537,0.10174786851924064,0.28000022723157464,0.22091092139872742,0.47189404386317524,0.39404084951386853,-0.29686567707096856,0.1576387344369506,-0.41015649494780987,0.07956603713849991,0.07781601752249093,-0.447746465234043,0.2984958920126466,0.3188764812630816,0.2699660102164245,-0.11424794956047629,0.0016080972918795125,0.1780458574993899,0.26415347971631226,-0.10302072158474326,0.48426344712746966,0.07285236819660348,0.13210915635094544,0.19060536420008634,0.45268714206051563,0.25990822585345014,0.18279176322383078,-0.26338131238022083,-0.5241303496643105,0.36791618761275846,0.2045389431890981,0.28703851281717835,-0.0015040136872873705,-0.040010474403026935,0.09818712507809173,0.10021912191305372,-0.36337662126555376,-0.06529701033072162,-0.18784133195900224,0.46474426138218244,-0.32877071956676285,-0.06462429544629743,0.19439875803017578,-0.1750311455730507,0.4781749839240948,-0.29606477897104355,-0.4389171278815477,-0.0767170962587548,-0.1658304389619976,0.08361728706740829,0.22250873079781147,-0.1376830002566059,-0.487516685503502,-0.10102247564768217,-0.24174147513547947,0.2868859482368425,0.2851458100789442,0.37072117636729524,0.1437435829097091,0.22510076265205703,0.3441985025874057,-0.14594342190212278,0.3859215625326628,-0.12427069871887814,-0.21124404818106254,-0.10346874792923824,0.14678872888993424,-0.42390324007117614,-0.4663220548796968,0.04144070586847099,0.018510792669047,-0.2993952256961535,-0.45947572967626565,-0.16285263477871295,0.144908963465972,0.028528549348084714,0.30002276380185994,-0.20919383896124188,0.11603231423050456,-0.4678235950040382,0.00729011997066499,-0.2354372386140395,0.34570581725770577,0.01622822633366811,-0.017622231855016133,0.3901690310060166,-0.38137928008985367,-0.39314242542353894,0.2021587578274996,-0.3707631680268777,-0.14078169815084282,-0.41939928667666376,0.016859377104609496,-0.34173450238691055,0.11487696146884775,0.23015403764253942,-0.0020283052841766317,0.09993557981946742,-0.3917481107629451,-0.3873804039306168,-0.059536886387368294,-0.4804064992544808,0.35712084146660755,-0.47003926558495623,0.11930950656207716,-0.2279039673477134,0.028870711041552793,-0.4011189383928431,0.18963006586555672,-0.34163871530269035,0.3156362483678862,-0.3931163876353942,0.3335389251998806,-0.46249726827655124,0.25274026322868,-0.044269674072946685,0.20826102766936813,0.41576767122732927,0.17202820557776158,0.20771107955725374,-0.343611701852277,0.02223220094749798,0.44563067901899683,0.22118670045000957,0.1427672494334213,-0.13732121058820046,-0.4709230967626652,-0.12130781944258619,0.01332054712373782,-0.329940423959731,-0.06932086082827123,-0.437675298711727,0.27992162994178404,0.29766578982409736,0.010589621112989936,0.4175338262846408,0.201633822547467,-0.12408970568058787,0.22751919974168255,0.03500280425241057,-0.32691983535617125,-0.33158664326236925,-0.00541526778998059,-0.04517114261062399,-0.4289059316360226,-0.27998688036215835,-0.07649663871809577,0.28308654322637916,-0.09965921431485551,-0.08051737121196376,0.15544856898127526,-0.28020821267632023,0.14409184739188918,0.059931191425246874,-0.07502261903233118,0.11325229383345649,0.4114645105055211,0.11040739666756187,9.788608109687375E-4,-0.31291627829550794,0.044080216442658235,-0.11559996574316528,-0.039248244836023745,-0.3288631914647769,-0.029066667675954436,-0.39619192983860524,-0.39670654295394314,-0.288359638977423,0.15463793665950243,0.18866753451208518,0.09384356135129167,-0.45160899825426915,-0.33091282087417934,-0.2423431897056673,0.1865582777725578,0.3203641604901998,-0.09448023669881668,0.13016778765319856,0.33483681827100314,-0.2066941896800933,0.14337226151890686,-0.44223913601885095,0.36783350882233623,-0.08185723770409223,0.15970397447903073,-0.3777632727249776,0.2502641786747263,-0.424384321295917,0.16350456936116564,0.20149487027997076,0.1315226449510538,-0.3673322973232418,-0.46929994364533073,-0.024297601524982913,-0.459670209834812,0.4353774417913984,0.46235801275180555,-0.32044851403765495,-0.12436261957235044,0.13892480734337048,0.16862641714855856,-0.33365202465068705,0.45901506668703373,-0.12080729184828976,-0.4601554193775386,-0.2888177986577317,-0.07174484692846704,0.33157050722179726,-0.4460423487479608,-0.4208894057447298,0.4873369600234235,-0.2549714323306064,-0.22493674280238174,-0.20585589890621273,-0.2340444678657645,-0.29479257216992727,0.16691150211925274,0.1772702578153418,-0.21296538210037003,0.1708963019347774,0.12351950821736006,0.11741760357847768,-0.49802764253771437,-0.4960794868429983,0.32198035313171375,-0.17377414052132817,-0.17417735730315045,-0.44287365151624886,0.3488545575053614,-0.48751292293528553,0.2882534982904113,0.1972698624597446,-0.1254075488151445,-0.06699793681878488,-0.44324332951035367,-0.19377759400149103,0.12963160205817775,-0.39159981597947363,0.14038571022761664,0.016623109538029025,-0.106749550941921,0.09823515893388052,-0.4548794167512964,0.1262053161008935,0.12126421442008928,0.4030709886623092,0.04756843480462536,-0.5294528358422383,0.07175058570659336,-0.2781826549375053,-0.2862842576454148,0.018450159196842803,-0.49988821729350574,0.3469336449423786,0.21354104748074892,-0.2049037824955791,-0.4763257812830247,0.2662639676514346,-0.47086161594504244,0.10943467032714732,0.2723424044584046,-0.4046316825331781,0.0431283357214302,0.041194227250847405,-0.5274507261155849,0.2274560885970793,0.1744924273038704,-3.7725436384751656E-4,-0.2727181213618646,-0.3229356720672276,0.2769207630613016,-0.48884090505220523,-0.13971662057940853,-0.13771964292107422,0.31938176636760884,0.49594260368807824,0.15422873863845765,0.13294863157911607,0.16484227105244048,0.3129564951508839,-0.263289105307871,-0.07511371282393102,-0.031178550217636245,0.4516100982836861,-0.02358040329682451,0.034451476073075436,-0.24394472563679695,0.021964283652040652,0.1291657631485758,0.06703573926145084,0.38411150038964537,-0.31230946501215684,-0.09918177172157529,0.45361728099131776,0.42902688871188394,-0.27186000490528095,-0.0853291150864926,0.3785641089995976,0.1137595764033934,0.2326475459835327,-0.008581665024684099,-0.4394084436859946,-0.4238847030196295,-0.1931330430329771,0.33283952998081406,0.2681913808042686,0.4068289188708135,-0.021408783341722616,0.24315020214121302,0.4374723947317876,0.08842449039411035,-0.22820148739171642,-0.28352704286232994,-0.08143800260467077,-0.1154958245075116,-0.4059915865407354,0.26931645279155825,-0.176692808854383,0.40281288409436095,-0.4630162351493693,-0.4617900571408988,-0.17347402237453982,0.15592589744378257,0.10443775838021524,-0.2578212916939438,0.08941822117490586,0.33898193258138276,0.294372991953706,0.3680248802384722,-0.08928703098493591,0.06439608349242747,-0.14295049239886068,-0.23478348248934294,0.3585956481566401,0.10122446169930327,-0.14084169909516864,-0.14789736263956968,-0.32911390876392094,0.2819934853282479,0.4427752865886978,-0.12212255000424024,-0.38351831490580957,0.09491590041972589,0.19544948044768914,-0.35056758560686796,0.30972957033189996,0.010655157090129062,0.5088137841409173,0.34784529347358634,-0.006403751494682322,-0.44680215721121874,-0.2444680840772801,-0.3414208771119617,0.059141796559212347,0.03573581896562856,0.34728308573303096,-0.18004830135092834,-0.35432012826009596,-0.08848190551387118,0.44576141291599647,-0.24051494187837885,0.47044605573840315,-0.07366605348743638,0.3466290117761038,-0.4598748151417898,0.22917623688942074,-0.24580662483447746,0.3519980709785194,-0.15685026843834646,0.38581984364549865,0.4775410297595141,-0.15581859725793043,0.4534094554046804,0.438719367037141,0.32949117448618404,0.24378129422284078,0.18645412313039328,0.1704195579654539,0.4777775139660088,-0.44922722580283503,-0.33470309889788086,0.30275027388182535,0.3873473938775297,-0.4326924436325922,-0.39367287353600117,0.46668412515035274,0.20433580888066197,-0.46361080568811464,0.23496523065822578,0.3429898784185486,-0.423584495290336,-0.4323029900844466,0.08163084559150552,-0.13550432594439796,-0.3028355349144897,0.10460955454993687,0.31391764895815727,0.4640830810307593,-0.4534460999705199,-0.19689354434911008,-0.2366441262007807,0.13702286742482772,0.4163809582219366,0.22324060261452874,-0.1636307548738827,0.45773447262792494,-0.012397570293677194,-0.05648637889726562,0.005460030060291743,0.10974866157198332,0.45935900729723994,-0.2003525186541786,-0.0761178541702104,-0.4304878526933166,-0.09413321696349718,-0.3570807071425763,-0.21459483304811686,0.1560032848712889,0.4403249118649474,0.17221947847288074,-0.03287404441736092,0.13958230903471416,-0.46670578124494255,0.4030183639036791,0.2913198358227258,-0.17855327672448282,0.3980272018315928,-0.014162238248752942,0.1745071123826481,0.3003393828680016,0.25182905313453563,-0.18807364144879815,-0.3728463622802407,0.10697865438186066,-0.45578982165045356,0.5061030286929139,-0.13913881763535157,-0.039732720341655495,-0.39727076528202737,0.1675895356382747,0.3414138441557059,-0.26257867284013386,-0.24472379358720991,-0.302414324055787,0.5160701071787067,-0.43392235144205055,0.184885027491621,-0.34427729981560173,-0.1173673990610246,-0.19390596729290008,-0.03619042050198475,0.07171519136735095,0.06090623278238938,-0.2969278049430389,-0.09258409867814905,-0.16283553646401605,-0.0609772429696426,0.11819835006391491,-0.06383080635077744,0.39806784745222296,-0.43493635340920966,0.211019541584564,0.21792011652641968,0.29858144756660476,-0.14402701691708975,0.19187396872880075,0.09450628977480187,0.5017987782806816,-0.23057247227667182,0.39635525822333967,0.060935127301886154,-0.47346492927066647,0.21685989919990614,0.3787666956747621,-0.30618373858585074,0.4800808915350666,0.029564693853657783,-0.39048856487021383,-0.4456491153073219,0.26443382663141285,0.26224058663631755,-0.45842619462540113,-0.4977616438441643,-0.1708363019589606,0.3050072119016742,0.4167629674774536,-0.22215692722388222,0.16555951018511345,-0.15551864856803238,-0.2528998754955597,-0.044008585553409155,-0.0965844430554317,-0.28262520114868583,-0.19014818511861403,0.4283344648886989,0.4928752609557566,0.28792985748765815,0.424628500166469,0.34901864164423285,-0.03713272699019841,-0.445887253281209,0.29023837849794193,-0.12980784949531482,-0.2772167107892063,-0.22458263384053465,0.19805412303434713,-0.1610079257572131,0.0834080883852373,-0.47500020225626766,-0.0718098326131053,-0.3754883188345838,0.1935088286272928,-0.28055828201516403,0.19118620976982875,-0.10327030211656317,0.0660067223297032,0.2955580273497656,-0.3776272896319142,0.14062320966387212,0.05501644404992077,0.11921209223162141,-0.4928718968591491,0.2723710530243457,0.4945124731477645,0.0037288561023318843,0.2791215323765396,-0.2536763614393503,-0.09836657050116983,0.3752918104300098,-0.38297935895899704,0.14013926420806166,-0.31120301080648227,0.30448088351229013,0.16589194272375452,-0.09100275621466673,-0.006443370254804404,-0.20976669609513923,0.11230314429913539,-0.2670541857587599,-0.3049204523153789,-0.2706908788644817,0.3156592783952384,0.08355196615713893,0.23097327769149548,0.3577643860520524,0.47456240691234625,0.19536619680594136,-0.09169011855714497,-0.2149392535198451,0.41342665802474293,0.07570860389382864,-0.39886213347563076,0.24237229286297357,0.18148212351968862,-0.3275572687628832,0.31560314379497695,0.12210650870764563,-0.49008702967481815,-0.3650838087273904,0.19896699477720703,-0.16614685902895596,-0.4946939123980206,-0.3835885580092658,-0.2200128810022764,0.276639676386705,-0.47788642308465323,0.4426587222152905,-0.35698459470375066,-0.3162912651964519,0.27256109613080953,0.01523821449392938,-0.06760830270643692,0.24376777218866613],[0.3525649613452311,-0.199649688913546,0.021711002216126516,-0.2611579816613774,-0.3055728096019859,0.09897046349427709,0.41017570924414165,-0.08844829899560626,0.3785823462075776,0.28152661344103486,-0.31151222157871555,-0.3836568623718631,0.06503462018710467,0.14087997748916814,0.1077106720950796,0.058381407325936156,-0.27629702860603517,-0.16211322050506247,0.11895143593461355,0.31928360711778947,-0.05442846650196276,0.20931882365300392,-0.12631322236935058,-0.03389330119521035,-0.4582556731808719,-0.1623069350744079,0.1429438389833632,0.43636431805650705,0.32765649473625813,-0.3712866629733373,0.40725974984261265,-0.21536951661507409,-0.2887054096251934,-0.4336409508045873,-0.2963773016987823,-0.08491316871106669,0.30192437565315605,0.29901011250221754,0.06527552670857918,-0.2544223426597742,0.27020973480742655,-0.035639518867353906,-0.5218395573489629,0.470380728883646,-0.3269839559441709,0.019947483991147652,-0.1761530378509885,-0.47115826713289016,-0.2847281083104635,-0.2372454628628371,0.24577270307670954,-0.4104289662131621,0.2733663294998315,-0.09118155484054223,-0.26103979771518204,-0.4534646063100067,0.07365002372437389,-0.33331318436489915,0.48470076765600006,-0.2720811010184695,0.21052479236017388,0.1355771599216047,-0.11103987725830652,-0.5342002322156775,0.24152683967814484,0.3817620203448109,-0.03179917737730402,0.10316815986172734,-0.2158122227997143,0.3612938393620385,0.3026460765373697,0.39800323009018074,0.45120314083029694,-0.09239026124002628,-0.49428681212632763,0.44009398536802313,0.3615311185193897,0.061658742062641506,-0.3205699048286847,-0.43427575643373484,-0.19111365308786368,0.40359442826922337,0.23067834778037336,0.36654316874293347,-0.3047596541322498,0.2824138843941064,0.12598063094602333,-0.23435090600764077,-0.600048858612499,-0.47501465832543965,0.23686632555943357,0.3058654853897553,-0.25428461759286747,0.42617609317577254,0.03251654187529184,0.21721464779279293,-0.4377051105139633,-0.09365474791786871,0.38343508624586536,0.35631546117638874,-0.0476165302461268,-0.010864613077205695,-0.347362689672363,-0.35280449610085834,0.4042356037521071,0.24414839863793994,0.28569356317457534,-0.2982817987412759,-0.5008808233796367,-0.20839211351728665,-0.2941041350919862,0.0326736434978956,-0.3877655763721742,-0.1093380726888473,-0.029189397197998415,-0.2572910532166748,-0.35551331766530114,0.22354539541916865,-0.3956984705105598,-0.5135659642164648,0.3444851114652931,0.460587065391841,-0.28718353702052013,-0.08440143262235025,0.06161677977918147,0.3727758329092705,0.372455071900753,-0.1380892503461223,0.47319047178217843,0.26807376839809993,-0.42374818652510204,0.37117318332456495,0.21842662096641285,-0.04050016162557243,-0.2679069798039969,0.18165952714202144,-0.49445675234606945,-0.4968425246156237,0.08382666845945554,-0.4870699389579625,-0.1256978216433742,0.4102106642711162,-0.5639508646105381,-0.19097133663698357,0.12063026447679188,-0.1352010536307524,-0.2233182922476633,0.03197575373199008,0.0067521634592646465,-0.08318726904294753,-0.3724838108851651,-0.32634631316525825,0.15233272153052294,-0.060538390790390036,0.4879074197298798,0.05098694566519879,-0.27648542588820263,0.1861673170600926,0.17168626137598356,-0.034562828375290906,-0.19861336055804593,0.3535512712345775,-0.19898855132803972,0.11918838987780625,-0.42800602885596073,-0.4815723183985352,-0.12627008032864417,0.01340595209571871,0.3751994318352342,0.2790188745304987,0.43551189267016077,0.4591426796872028,-0.4514586631300821,-0.35788726923825387,0.2649938188448845,-0.07575048671432104,-0.4401768192047313,0.1400574625835146,0.394237766656292,0.05918617567592102,0.21357189731698176,-0.40411862287141437,-0.11540438591580089,-0.06617357196456945,0.424705387351366,0.13274255099091123,0.05778403280843639,-0.20505415040899394,-0.3229209105647917,-0.06208786123144202,0.010801269182764903,0.32242029094729957,0.16103203840880925,0.31510557441441567,-0.033800247803115295,-0.2295232095619453,-0.090655190770273,0.21368286407973688,-0.10592491464107834,0.1529379189127426,0.15928048352752047,0.0370780138407301,-0.33875287502563217,0.11214906786426217,0.26424739178522444,-0.3018869885437395,-0.34050162921296495,-0.5177638183617684,0.10884830969818281,-0.30532227367286047,0.2462279612468572,-0.14453936212299615,-0.04822039903610242,-0.07869371960530154,0.3339636276663395,-0.5452945096194605,0.07717844809483511,-0.011589841443882766,-0.023730728497389365,-0.1524980538610032,0.17067358732750904,0.4611152931360321,-0.33500230835873984,0.2820889288971343,0.1954064460920855,-0.3101365549862326,0.39908850844576554,0.25510108491005445,0.2782383691933992,0.31287001268545866,-0.150585530130372,0.15737968128438173,-0.4404974690530894,0.3567531575977537,0.33830674858916765,-0.3296323253736423,0.02521719798387418,-0.3239511447610073,0.1719105528518587,-0.46704488638520053,-0.34411182850911404,0.25367294332718987,-0.1749635426789153,-0.11630661309438539,-0.09679402955175698,-0.4460069870510243,-0.3393601201813537,0.05746457997446297,-0.15953652279881342,0.5683409158983135,0.44302404587720684,-0.04277292615260367,-0.059211219327508585,0.32157457841639014,-0.4581091998585317,-0.05283473805595061,0.42715071451834413,-0.28347898660775556,-0.4247959058340401,-0.02433341182827999,-0.38404287575276763,-0.0847198187243693,-0.2479007848369168,0.009125650672750396,-0.49529265664486966,-0.1275850158259334,-0.441164408157019,-0.39992955943548864,-0.4682495920079987,-0.15502447647148715,-0.14171946774989894,-0.016621132066264244,-0.1272021993796797,0.030617149441605405,-0.018593303653483415,0.5101132080046212,0.5262871938719302,-0.30946268565657775,-0.10193347031743627,4.130966906611114E-4,-0.03928091742639455,0.1208862522086339,-0.29760976240577086,0.2523256038061916,-0.11933698589452392,0.40731348538688156,-0.41107052728071597,-0.22889228865035574,-0.4056480498359394,0.4169742987118184,-0.2942307089212913,-0.2847277922539875,-0.429747735190665,-5.44824749931135E-4,-0.15020117510701866,-0.07001440124029563,-0.05116730699837334,-0.2637129973885128,0.12413579708009691,-0.22075980620301358,0.41266861135057464,-0.012861670825034827,-0.3471490157821186,0.06268830310654835,-0.03233544332405904,0.44322669655882285,0.3320874519682328,0.4485352434275941,0.0019140807772349655,-0.1476214205425644,0.019111437487033277,-0.03424431896089591,-0.49811123444588035,-0.5957111002686085,0.28087292346339454,-0.09845996843852911,-0.1031902212351936,-0.4637836079259251,0.20636358093143625,0.2104189215987776,0.21278149435999055,-0.306603289257673,0.2256316260666626,0.57234245594853,0.01193639024986192,-0.022900864611767924,-0.6989758465662221,-0.26902784787638945,-0.23537634703821067,0.13130422746236028,-0.08256369757158112,0.3975778131097486,0.03580994288072931,-0.14628967171699786,0.1686338869173487,-0.26543120386743363,-0.285596499607625,0.27381937766189884,0.3327880513616145,0.19168790158411578,-0.4115493086244018,-0.2400041768860766,-0.12466860468197914,0.04928225769584929,-0.33062389309271023,-0.36263222418815694,0.36266472271424904,-0.30275070933169407,0.05403072532098673,0.0628447242409409,0.22158852147022004,-0.3304685226241493,0.18884975231854373,0.1498830916875343,0.08916637946703178,0.46475660687515663,0.48777067158991977,0.23438596046441096,0.2710471952924681,-0.42931763606705103,-0.3153940984845383,-0.43628895025727116,-0.19649992879580253,0.505887916373674,0.3213821411787896,-0.15496378861052787,0.3599511687679194,0.26608715642371494,0.24356574116718077,0.30016445624776017,0.09852749683168072,-0.01630610804648561,-0.14497506227307308,-0.33763351118430496,-0.6350331979736313,-0.18408372574063214,-0.10662328622614572,-0.4216863078818722,0.2678768801236713,0.4656072181120787,-0.42368110316110674,0.15215579670570098,-0.49005153463742046,0.30190531077790916,-0.0694073537700878,-0.05435711061723829,-0.3661243228629877,0.29619770777668325,0.2865172731957629,-0.0857089593934463,0.11728724637041531,-0.16096833138016536,-0.10789183652245742,-0.022936896630760362,-0.4324636221713018,-0.34087009753322683,-0.1905025151556789,0.20431853245555687,-0.10771033780895095,-0.26254242947882733,0.42812789017361425,-0.048826980756372124,-0.18808607946045425,0.02117226349733453,0.030751716284612075,0.1392674824894691,-0.3806589795270539,-0.39119271392989324,0.08370687999464178,-0.4558236237776295,-0.1174593149190636,0.3042487774873683,-0.03422759644239032,0.08117451929639942,-0.46932928061638296,0.06368876817518472,-0.23885615064622423,-0.07223014232942888,0.15714391462808266,-0.18076988913118763,-0.24457856520838425,-0.3550498964381952,0.19505296294914792,-0.3223922641302157,0.2959684705772759,-0.3099814303488003,0.4059581886920195,-0.3595415737337239,-0.32619789692948314,0.29662507661306914,-0.14026411600842267,0.2189702242279346,-0.5865235867495125,-0.4900969153353684,0.39155775212534344,0.3587550378212641,-0.25585631412181364,-0.23079536204902087,-0.4129095435603118,0.44224087398390494,-0.15384594749597788,0.3023367013563548,-0.4366367609733443,0.42277924690560226,0.4861364138081587,0.28054847599542704,-0.2120438167268543,0.10242421482338127,0.27362573532708934,-0.2793549671798216,-0.3938746812263865,-0.25382256934314845,-0.2063179595786283,-0.17142192587778615,-0.026064458847894656,0.05191560238481934,-0.537073615126115,-0.26180329884288855,-0.4563710489197368,-0.4366787445609198,0.10733490793044387,-0.4305519865461144,-0.25366920602975873,-0.0817374633155838,-0.37298859333697665,0.4748557985747085,-0.14049749714210544,0.08605150678450067,0.10347773787136631,-0.24106384053324512,-0.1949769165181858,-0.02621483091764079,-0.10975742880328516,0.04053254965044182,-0.3054803160311968,0.08798747585259656,-0.21209959441032594,-0.49991464358585463,0.12642801977181864,-0.4424052870004162,0.1495351344229229,-0.09794342731895764,0.3291847087661109,-0.40677733721801684,-0.2847190844330847,-0.22810742192648878,-0.10094054142991095,0.40503202540629474,0.14173117988663575,0.34303991158586405,0.437365042697539,-0.37490898372809,0.32672411757270686,-0.04610976401969579,-0.5127357236456355,0.027377048616029312,0.41787760807025554,-0.0922688136800964,0.2237573530072184,0.026762092355274766,-0.2033904202071265,-0.4516084409900997,-0.24347521259095287,-0.43308071870992615,-0.40248443324285327,-0.27228314561798966,-0.150618571682931,0.3543049084546898,-0.3827157938000832,-0.27984703924664767,0.07831516417098962,0.19055593777215254,0.25743769646521186,0.2988585804521321,-0.38656021684514347,-0.288591753538902,-0.12804535225923183,-0.4751916267395948,0.04836570763733568,-0.5828494781816872,-0.38942530996230884,0.369187347514511,0.4792168879055757,0.2449287830872649,-0.06966586022766955,-0.4977214350401505,-0.17749179056340217,-0.4964583563034844,-0.08132608307540795,-0.29210366237928737,-0.2469004619967811,0.3827034297853654,0.11629153400127556,0.08951885356944653,0.29104045637446957,0.5217849680339438,0.3743377973589352,0.0011710354472832419,0.12146774684251935,-0.35760177823958267,0.39188743900002976,0.2237653850904167,0.24113897678534227,-0.4734503207629127,-0.28853233064528455,-0.5277607535219728,-0.045306045304416225,-0.3495796982026201,-0.17484236267952066,0.42087775909055236,-0.2646146655661807,-0.5212995254190085,0.3085937347472598,-0.49200677511767377,-0.32234734393460096,0.10045863662008706,0.09565364614973841,-0.18674545573375273,-0.4505110099502186,0.47546517861851595,0.41364767399827157,0.3373905557113065,-0.39958587001747614,-0.15716267883216567,0.4468453793151978,-0.18710744651117642,-0.2611184498183112,0.25222705203187695,0.23899123192856858,-0.13101497240918156,-0.44538687997847853,0.4014521370212377,0.010083988119432655,-0.116440769139184,-0.3375943022125247,0.44847658518329747],[-0.07824948723563581,-0.0133719506345168,0.4171707094783402,0.24275539792521153,0.22669639356715912,0.15866181590056413,0.4979292253897985,0.06362619160333846,0.2646812443125887,0.2926733764505819,-0.4068491997148055,-0.3006833664346479,-0.5526461466232983,-0.6916471178649303,-0.7574922002729259,0.3967103188199247,-0.4387741126188759,-0.2831771304855023,-0.3289506687493042,-0.10125507569628983,-0.07316546099205863,-0.35106717048909986,-0.5473233525152821,-0.06645061308243874,0.07330483592238524,-0.4491922944243325,0.10370762371285265,-0.18784956424096916,0.2523264442068882,-0.03843462268420938,0.09411304862531061,0.5143058386454449,-0.0089340606951644,-0.3700855555155328,0.25874185577100245,0.2439145258115828,0.3860352852007611,-0.07164646009627891,-0.3350519666564115,0.21231567406221968,-0.3236203684100746,-0.5094599129478243,0.3401394233521078,0.30381974987515165,-0.028533808124891157,0.1020216942290834,-0.1152739650331089,0.12804833359155854,-0.021123676742429345,-0.6225820920709021,-0.4953977820047499,0.4410354343376224,-0.05591178046790224,0.5014018879340549,0.20453466347903887,-0.4058579736029766,0.5174597399538455,-0.4337658798831605,-0.17672834013292676,-0.40190210176675045,-0.4788180499721026,-0.5185049062832713,-0.5427173370290238,0.07461522293152137,0.12078397231250836,0.11591290839623733,-0.5398155674028662,-0.14405803644377926,0.02907349878026956,-0.10570338234327914,0.3755755515730144,-0.019779699446387695,-0.38040466201592255,0.2857730931290456,0.3073421661956568,0.5926521489457104,0.1892384680805181,0.5636265773393166,-0.13883873478586883,-0.21007124901763696,0.46518430206078437,0.30686958253295554,-0.09584061374977819,-0.41586579894979636,-0.40458492703695903,0.4092633836651501,-0.5014930742696468,-0.5377284434167702,-0.4014660689499888,0.06950346800240291,0.17914875027219562,-0.10054316382556057,-0.4897055762619884,-0.28710336549719684,0.3294716014984044,-0.5039285265652648,0.02008769622173216,-0.18443257709698915,-0.42589280882151526,-0.34367957103021946,-0.45517028649349356,-0.1582484221186703,0.19492035704307611,-0.4270871798853071,-0.33801588928849763,-0.04672261559122924,-0.20555795468837043,-0.2046055098356561,0.0752608735955067,-0.6372763415469599,-0.6576954810971366,0.19149952757402816,0.11616007600151444,-0.056405224250906924,-0.00917846051333983,-0.15427124699880748,-0.22428026392514927,-0.43956268174501445,-0.4795632936651897,-0.4009018707647052,0.13945505724645685,0.3080706459995036,0.09519522673129235,0.21664308332861265,0.20023641565395947,-0.44943805222947497,0.42752748053931694,-0.27549644952018315,0.3197808574568384,0.5272479920854259,-0.1291283623414399,0.20926939558911595,-0.3440503409622919,-0.6479801492803278,-0.6911611457654809,0.2213873883212466,-0.5526279313965345,-0.424860371041489,-0.26522161453188675,-0.30563539708226756,0.26597084869400256,0.28819204846418484,0.2784707374142974,0.07535755455276764,-0.5336088372832619,0.09538387780051402,-0.3438210548942564,0.41102299837976636,-0.5114347777649965,0.2998238758421214,0.41905563775513976,0.15149960180377245,-0.3989117240803578,-0.0971581869432029,-0.5322711815021773,0.3700935971665516,-0.09208507174507032,-0.4053283826607036,-0.5701180512899363,-0.33435879057207674,-0.3519785425911473,-0.25976350443586566,0.04337226395773315,0.007039777534272788,-0.03367502871844993,-0.42529347339717233,0.19107372083686397,-0.24223298816588792,-0.4685787044403019,-0.1169695533054212,-0.22104000487544262,-0.0018785685466449693,0.06457716306503336,0.12348249634668047,-0.044733091980943156,0.21659350376159212,-0.46870046026544926,0.5068804767455033,-0.19080545431063695,-0.23771824770551933,0.2442939462056671,0.1435463266834728,-0.3736610534188083,0.06974403141886566,-0.12381438381390422,0.25543129672461645,0.03277986656905892,-0.4779688522665018,0.4176266407609147,0.29051383307366624,0.013141519820372214,0.23812920782390143,-0.26966171162985997,-0.05280686604223017,0.14939316092780114,-0.3710543919973475,0.010314022873113619,0.21455109290308852,0.4585746525429409,0.1581933544774294,0.22610689878312606,-0.07574791250894677,-0.28385824558941436,-0.533469278390807,0.21699854756257742,0.3332213659849356,-0.03128073199141723,-0.006745838638791142,0.11972074031679883,-0.28532222634705723,-0.2006335183571046,-0.018792040866808087,-0.06027514108131479,0.28061269987630366,-0.5960210895766201,-0.3536688228373629,0.31206181137005135,-0.19782043829107912,0.27126720773438623,0.0784718333115586,0.38109180783447166,0.19596605953382026,0.2987278076430215,0.4849932566260969,-0.24764061449062377,0.3280839425454303,-0.12020267523489069,0.729381894871221,0.017802318369923013,0.33330483816799145,-0.31459877088590565,0.15647994213038924,0.04209166681156257,-0.1700655500091433,0.03906421713487633,-0.15094975750608078,0.27238099390354786,0.32478186532850195,0.1845674911144884,0.15528703058513577,-0.49850688518347747,0.5285892166802312,-0.20139744435083642,-0.1085218858970574,0.5123272180010621,-0.051240670529074335,-0.01956126893793531,-0.07509023572232815,0.3726757751018445,0.4346593191884611,0.6281234057812506,0.08256040552868052,1.074784668137881,0.5729138436111904,0.002487701610339279,-0.4093463366530819,0.3785431651160871,0.4414602652049311,0.19793999766510503,-0.4235568664930555,-0.1541627018535902,0.40193347729618467,0.09892950966718828,-0.5424949108705409,-0.4301642301504368,-0.3393090866693467,-0.19743551832919018,-0.07828849947538775,-0.4053582592381779,-0.17072848927055256,0.5949329440468116,-0.17484951483500538,0.5140137380258198,0.030492796354528416,0.3697206002257624,0.27016136821059406,0.10446162151057821,0.9092154835872011,-0.3236254281315206,0.42443204359720255,0.582456823388686,-0.3576499028637926,-0.16713143571793426,0.043697309616374296,0.10320729719472843,0.19853966211487215,-0.31562780598410883,-0.2095229897401404,-0.31534457690558565,-0.45026191622035105,-0.09537940647005336,0.6804058015355353,0.06803684646914532,-0.3837572055112991,-0.09862090113555193,0.06757860899559111,-0.18777528285743045,0.33367655458478684,0.312619029761532,0.2819517461455266,0.8472147189167228,0.3811349406907494,-0.20225177178716636,0.36943736730494386,0.291978596589618,-0.25734668317137066,0.05860551528715447,-0.004839978710507912,0.08597027762729931,0.15100577187424558,0.059589056390284285,-0.20204687392280835,0.057739715793056486,-0.6191727682238541,0.9078538945274072,0.5233784513015924,0.05858245652337285,-0.04624625112728332,0.03332837602389119,0.2731227308384975,0.48848609544868776,-0.15474640037002088,-0.17231453234892363,0.16375180815732854,0.8108581280269395,0.49249800594055826,-0.21773200499447698,0.4022388266947117,0.2847362369578191,-0.19671444899845236,0.24292172361006648,0.012111599174889815,-0.4600025624167165,0.29697907786065586,0.08602071230155021,-0.6050550201970857,-0.36587402070106084,0.12091117234060994,-0.0943867169661313,-0.32190916407514936,0.09229029891578476,-0.03335684717751236,-0.2622574639072203,-0.36915514417720907,0.14171452224757888,0.2801988071509846,0.13632349731980659,-0.1718657823701924,0.20031323868528492,0.1411237306600984,-0.26654308775695257,-0.0756895951687298,-0.1613350459410247,0.3312193398991571,0.2993182744188689,-0.031102458448365556,-0.35986795919566245,-0.2973879957299271,-0.42976232362477024,0.16370629697769745,-0.27392922682161475,-0.14891442147886708,0.6265168213283685,0.39368030693819545,-0.13288920428670353,0.4627340319574073,-0.4382993656305845,-0.4808833984462214,-0.48505056124427115,0.12307098539903473,-0.43454017076573553,0.45839296224598763,-0.4239000810276495,-0.681130646696585,-0.7495320904107403,-0.622069433631104,0.18112719880511866,-0.4029216904070715,-0.04480363859846596,0.21167849206140885,-0.47851403027822637,0.023565032547506175,-0.01705824656975175,-0.15042126661375405,-0.009788980860566305,-0.06735042684012259,-0.05091934413829704,0.30765518774747036,0.260459743259662,0.26390669192107047,-0.051457657493798006,0.22714215308508512,-0.20012441951083826,0.019434099861228515,0.2923978039736923,0.38289978627416105,0.5509292095693309,0.028372832015494162,-0.2717396981786624,-0.5825099720485527,0.41161170244469447,0.1834773011937248,-0.11094929965522163,-0.5031825474988668,-0.5563032450711782,-0.324845626710262,-0.3463120949593758,-0.3054926920685979,-0.5496649630872465,0.33162743536585665,-0.4712606404051482,-0.15701356759516222,0.09318438602595738,0.43446614507064796,-0.05195493206615149,0.061329421837212544,0.06875334691504656,0.01730646100434311,-0.046514834425732975,-0.11208177226143225,0.309242524103446,-0.02791348487685383,-0.6403082569781401,0.22462539729154568,0.046115656012588685,-0.23022341096714777,-0.03938536804026023,0.4480576199680689,0.21439348972816707,0.2548387465044694,0.14024278600688536,-0.3181076521569377,0.13408248667716313,0.3785345859957286,-0.23435043757506713,0.11726980501915547,0.3980862807220654,-0.02275036593384469,-0.29670554063236,-0.4201862799913754,-0.20845379983485046,-0.029570054462612603,0.05869286637937474,0.15957267165547764,0.6222821832387778,-0.3503658034614599,-0.05496658719179073,-0.3595453597385811,-0.07055500263818168,-0.2697073208525155,0.4306641117751477,0.30604684309931507,-0.14819422371466712,-0.0976729340513448,0.2889663768046791,0.27989961747025516,-0.25472894348146086,-0.36569405019075746,0.11602710244382841,0.2919269759330076,-0.2630195529520888,0.10597871324316638,0.1846639909402141,-0.14561389238577954,-0.25316144757472464,-0.2790100949812373,-0.07441828022207271,0.15665329411473072,0.20020628257393533,0.3256863205534215,-0.6589165478458426,-0.07453792157152589,-0.5241961921546409,-0.32097933234509085,0.10123035712774026,0.20928245202436507,-0.25800583408977623,-0.0642228680177133,-0.410381924336382,0.2282120514212614,-0.04711991449893732,-0.10349006336559673,-0.020181802792864124,-0.237434528520783,0.31646464429050364,0.453430587668742,0.3386560603617417,-0.08685432868614962,0.09577180026225038,-0.4508127756744855,0.1998050929752665,0.3643245173137634,-0.20872620073836787,0.5417554766095805,-0.4634945870210946,-0.2683470122739538,0.45250312690639144,-0.3223392180078233,-0.41803178430695415,-0.22796288242131998,-0.33402629889988206,0.24986646209460314,-0.3010069873507189,0.2663106198008015,-0.19234340351692017,-0.392218894222249,0.5427827944312335,0.3394367101979873,0.4810186038169635,0.038584219055407105,0.015602195566522998,0.4325320964110821,-0.22726104869509853,0.22482364776662941,0.10869876250446693,-0.1252432773631733,-0.4314593370833115,0.40389936064313553,-0.8716926925378373,0.06772260882523422,0.3237150177992343,-0.37268864322804857,0.20629746797052195,0.3428483281423782,-0.01426286548979357,0.36238265179252,0.21990216577964558,0.2772518413824969,-0.02460797330523253,-0.3871444910894845,-0.22073180239094714,-0.11461366295819626,-0.06841988837566033,-0.11268306359946394,0.3854603367110476,-0.14319075594244368,-0.054916905059440364,-0.45740858656088723,-0.3333996409092599,0.026612587432839376,-0.5047461294932386,0.3295265458801585,0.20832139326778598,-0.39469210769453095,-0.5558219298436379,0.06827568033023322,-0.36625933595914995,0.31903074633618145,-0.05907894768732744,-0.25142614487595005,-0.3476470636769595,0.17920937034712348,-0.40955380757187393,0.23683363471698518,0.025695479202304097,0.07698049632178956,0.09902750746124153,-0.07672046660867225,0.27940803493579364,-0.3492253321809111,-0.256379853720131,0.2785775275395015,0.354279908455193,-0.517892297070158,-0.3669273362120242,-0.002840151185198273,-0.3760698526732403,0.1565209190789687,-0.23340115284640436,9.407484246517247E-4,-0.36726389485252514,0.1844614275827613,0.11419709210066054,-0.16039129547544032,-0.25286014488571046,-0.009721645167296636],[0.1175043543439239,-0.4572942382710198,-0.28591773688703526,-0.46492275041037145,0.10077763129058186,-0.36803933545958667,-8.165288416934931E-4,0.1039933684928387,-0.3022009081035103,-0.19541311485161444,-0.29346395339845355,0.1458024909682038,0.4367514711566997,0.24275916242799278,-0.01513970397731939,0.4657223797454082,0.07962558702191304,-0.4409373193991078,-0.3521075412501013,-0.020860114296246388,-0.5049204821554232,-0.20206310092146534,-0.4545338076879157,-0.05358781775343831,-0.20084007068835855,-0.18261391707786423,0.42747543337646826,0.20204435332127968,-0.3769725760730832,0.40339784678770724,0.3558809963289504,-0.3534722310248242,0.3904891797856852,0.4221154894599335,0.4282887258649424,-0.23211933458999817,0.19754954914975817,0.16063783250593586,0.23793131964812778,-0.08024024726617764,-0.13796368099136772,0.0894287057279497,0.4459796352140775,0.44021419278988283,0.13829395930561603,-0.44858392172669653,-0.41623417623250936,0.020780424450177585,-0.334758794039219,-0.432565791619533,-0.05386375142302321,0.2191382460696815,0.08419918520336006,-0.2143886464282348,0.019607546582652003,0.2895942038227673,0.3886498939121657,-0.20609668411902302,0.23460244373424302,0.4910168773873097,-0.17378968719313295,-0.2847658371011233,-0.18730893512298583,0.49241710716767806,-0.15570836364576773,0.1267117662317914,-0.31032201493973127,-0.3697264276784504,-0.13147100709812132,-0.40092627763582817,0.2361829340948032,0.011788808408781857,0.09725407543216559,-0.039580640035770394,-0.17419362941878314,0.45925184498343175,0.3971720391066807,-0.2666939305885685,0.42511985438417255,-0.2255653876922066,-0.11102705128858265,0.1454146092500368,-0.3008499724867345,0.029163357467732767,0.4257611799399409,-0.30660358544698363,0.32317708256813893,-0.13115471339971796,0.19617455744743276,0.2900340840291868,0.20453362022751814,-0.10378680011705173,0.41115533559347334,0.07227453989525334,0.45688989729500207,-0.21276274702325887,-0.04320237859099349,-0.0286043646990456,0.41302108052743663,0.27761887910696276,-0.2422967004270542,-0.01666024330419975,-0.18957711282727943,0.49121236146638547,-0.5042024671294396,-0.15433700488741298,0.31918493791630886,-0.034121959586877144,0.0513984781426012,-0.22522543797572672,0.36759060353409495,0.35971027511505066,-0.2023945737218275,-0.24743367801310331,0.24226382992849824,0.37685462269402675,0.1565466082854147,-0.19411392159972307,-0.41669252266528783,0.3846279140751801,-0.2894218006071332,0.22086004005264265,-0.10902259647393545,0.5030008954447615,0.03302523851834448,-0.26580030765813156,-0.16965720054854408,-0.1087429168335212,0.03551871753816231,-0.3661055197909602,0.15413536203298164,0.44137766681159907,-0.027085046531095013,0.10739397877479705,0.4066017437497475,0.05360459186208707,-0.2013808303360035,0.2918125490838076,0.457598878501059,0.07155725195170402,-0.39708344709241356,0.34571572948411067,-0.4775021987767432,0.38987257331040254,0.11112765304581346,0.10530158387573868,-0.07543406849555041,0.44136731053435135,0.20092394312745407,0.030282197082309763,-0.009657521650693654,-0.38585310142474377,-0.25957109436311127,0.4375037163668137,0.402193620218089,-0.3951512188659382,0.06101101360765134,-0.009546113579812087,-0.10117202024255711,-0.17452116852504004,0.09170659192451218,-0.4359867792749599,-0.3132554642150466,-0.2751106556298396,-0.11573153728115473,0.173193329403968,0.18910208101697784,-0.1325114815121673,0.047327258981587496,-0.2817924711982427,0.3829181698161097,0.29796211001498585,0.3667629113942131,-0.05050307917274971,0.40579223228541456,0.1997469759890857,0.012823181867794273,0.42002556598946666,-0.3824693497735294,-0.3941437591453901,-0.16666451299555052,0.018447026258890595,0.4659935769054351,-0.055108531130774734,-0.41498701492782775,0.06507128012296602,0.4847892819403184,0.14200622198419502,-0.026634371307039013,-0.29831318601670553,0.40205766424641526,0.3023616072458507,-0.08260452150575871,-0.4418353166646593,0.2626747072725602,0.44743179257731414,0.40941540305695723,-0.11311845485288143,-0.13252166740557328,0.10690642598734118,-0.17392865318338563,-0.438478357305887,-0.18108668438943681,0.41615334313009866,0.044072397460790266,-0.05878853466952164,0.18144841676093557,0.39540324660308884,-0.07555521136666964,-0.24908016232655927,0.20618354774441391,-0.41908352762585827,-0.38304021896350154,-0.36346452761103104,0.4110032370079755,0.22411690556841996,-0.389098741162423,0.07014340375873426,-0.001843354532324278,0.17404325789527422,-0.0034629125741246383,0.26395896099149624,0.27002043359932876,0.04309751016103132,-0.3527411096338681,-0.11508832765092218,-0.240893815790056,0.40443335396041247,0.18677818131041926,0.25379530723128174,0.13952315852395794,-0.45895381277214814,0.4619056485152775,0.4682655142680282,0.04753421962938728,-0.4280916759518972,-0.07283960091482486,-0.06924524457036157,-0.23563826928710951,0.42744783522891056,0.44204701757908227,0.32833039614603576,-0.41016879559852926,0.004555295767000089,0.20690434843763192,-0.23893346387327027,-0.4429899970227963,0.015265896734102986,0.2607448467957145,0.32672582904197245,-0.2530556991943076,-0.1635772014269945,-0.3694052768433631,-0.511735496752446,0.3632832767078502,0.33751839622329016,-0.4618321159164358,0.45734350631382853,0.17852266735997988,0.1811450861609574,0.3210107759036619,0.30543865093739203,0.37396711332177196,-0.022751589417252725,0.32119278828113323,-0.27201723940943523,0.1964976362562026,-0.16578568301006377,0.41434564894549053,0.5026807754378918,0.12728416001457607,0.03536009246669948,-0.29178545589268273,-0.28735469445871775,-0.15176619542786354,0.3304124067221801,-0.2958839851355571,0.10519506359348293,0.18492485854373344,0.23340582418821215,0.21653573745640586,-0.33256645331348783,0.2663099175802938,0.4708279587785248,0.1673327500920693,0.08260836790468608,-0.2650962497111489,-0.46712894682209205,-0.3356690886827316,0.09911924157723619,0.3534285619573498,0.24526549998209404,0.03632349619659652,0.15775879671990523,0.2728846277984403,-0.29650393533576697,-0.21442712097055297,0.14920746840289478,0.0365217909218874,-0.04858184353710263,-0.5520344233247634,0.09155913912460382,-0.03153318143038499,-0.3574346587928532,0.16580107632702307,-0.386701879052913,-0.4382678978618096,-0.19276437982467548,0.21407398079252443,-0.10005484248439592,-0.24191071281225243,0.40230182408742654,-0.379805165932578,0.12566453633799823,-0.007608354150548644,-0.3812684329630774,0.16643844210602243,-0.22776579996682603,-0.3779454779516367,0.14298296685578632,0.2177245905440121,0.4663766111437344,0.31216186724240835,0.01070354903958479,-0.08134747594774663,0.4050879601477615,-0.008214830502839908,-0.2145006818774175,0.2538925730500832,0.09363105241404106,-0.444030522839896,0.3234291076164204,0.018590931330805974,0.39603847364757067,-0.1707255147218652,-0.28592826118837206,0.10605075276372662,0.316028149455682,0.3752352631818963,-0.4733818355158219,0.20409737767927802,-0.45638956084516286,0.4809079525503922,-0.08717553598237844,-0.2714802012826573,-0.2798050360666225,0.11817784360179284,0.16000583282641317,-0.17566685847389948,-0.3799346736334345,0.06492849924784548,0.4542285441690527,0.1736407854020029,-0.0555627863371532,0.033284889896841106,0.47070139118206666,0.4557117437071972,0.08002213189675927,-0.2217824501772416,0.3294444090072039,0.279597198714886,-0.3957912683201668,0.16386253479821786,-0.04490934324992708,0.341467896139422,0.2108717047020813,-0.05741104585107547,-0.2813428358996184,-0.2510528432968497,0.27302556486120677,0.23199331947653679,0.3102310274548694,-0.10142900144462459,0.2034008685210466,0.15753806866510997,0.23458489309477423,0.034986688842939324,-0.48035434717884545,-0.2977316520463797,-0.36361362421265503,0.43821183200084174,-0.08597372207537103,-0.054661517992144366,0.39506606722880455,-0.3698174117958095,-0.26662894305757545,0.32535595861965677,0.29684360205510996,0.05423741381918105,-0.2943515959265782,0.16225705391786913,0.44337274642402824,-0.011909990517395906,-0.05107840265225393,0.12305018475033479,0.3453501888567537,0.1616842041600889,-0.1963014965804217,-0.3152328984527893,0.4584213426160626,-0.1330452582064631,-0.12789509981739464,0.06098932032496024,0.291521922739352,0.23580352512562192,0.24655371710462692,-0.16245579023089612,0.07217557604339664,0.08216677312071705,0.3479426899418763,0.11001547874168091,-0.27239073187689616,0.15234321979215104,0.060326196584781173,-0.339970477006708,-0.29914406984654773,-0.1232404646658829,0.4167714742497261,-0.4143273550649872,-0.4943475505463016,-0.48747199494979565,0.39852770062044846,-0.07502693428808564,-0.42529053073812356,0.2603564760893779,-0.4193568450702797,-0.14490080461571084,-0.10705764649593662,0.04361396888218537,0.3037927540391694,-0.4074308694242152,0.17805621358172666,0.06054319485563939,-0.42362983475522864,-0.5133434312691229,-0.10627167331509055,0.46544396086005885,-0.2697612033507855,-0.12248427868581496,0.28680752372056434,-0.09572021527578856,-0.46108827656985424,0.025298286981919504,0.35463809800720014,-0.24047718999359713,-0.25683077928523707,0.43967308594136884,-0.11158872385865505,-0.21658325899324127,-0.3035709837584998,-0.37350951361421253,-0.0658439103776479,-0.2497223181167027,0.21293928564687098,0.47640319312300605,0.2603806518210623,0.2334450979168249,-0.141853172071765,0.12389062191105617,-0.056332067153058316,0.18007316154091133,0.1483956826218883,-0.15322291730461723,0.2996988989195109,-0.46569019363541087,0.2043035507679424,-0.4902012120759242,0.2756562682323498,-0.13667349831904083,-0.20195009060476043,-0.3722427695150362,-0.15571015606628988,-0.05748789867260528,0.4499356208441498,-0.11582592594432643,0.38633882277885107,-0.07792723335953068,0.32582533663234386,0.2667658560565035,0.2906133494739309,-0.05274586843171181,0.14844861898813655,0.09159743454640332,0.1085561395173651,0.30363264326875206,-0.2807907069520812,-0.2428640391483965,0.18441097251639804,-0.26914276110205493,0.4880350760725343,-0.17636397753332447,0.05838241322303715,-0.1577698725294245,0.3656415610118499,0.4902300769080816,0.3851529500017251,-0.4683574658273736,-0.47122357033137074,0.07385986351603362,-0.2328871712948845,-0.3569201099384608,0.35824622453427174,-0.0812491175668286,-0.2648872485789886,-0.4528346201517491,0.2809579005495631,-0.3247549460177854,0.42915616191973915,-0.05734287356857083,-0.024786443007739665,0.17458812970596538,-0.2266594088047747,0.47167623279227794,-0.37992228123366256,0.023635423931817022,-0.47241079678273645,-0.09666713469654391,0.0866714286821067,0.03623465411256328,-0.18486426134661946,0.06158068519886234,0.04245740754675446,0.4785307589193401,0.46979827592665785,-0.4580711791270942,-0.49851118142175077,0.18776055462533828,-0.009024236158918482,0.2660282554769151,0.056634001667108955,-0.45040758621719024,-0.39923319476994534,0.18816240775163526,0.16877659068835443,-0.3394899598055625,-0.2828854425476925,0.2348026331948286,0.26456383999429245,-0.08709321201018463,-0.07824089011903809,0.0020043327831674083,1.8945974313083676E-4,0.40646032455202585,0.45712193801098266,0.15165031048509597,-0.3809772621335208,0.40770505631466303,0.022347998339993264,0.2793554453057695,-0.3368070110862125,-0.10557857485451913,0.27632782998541666,0.3120915058952061,-0.37460369770694507,-0.24147805324490693,-0.31933291071044867,-0.1873749826481009,-0.0060693508623832805,0.3987717209223987,0.3357833993908457,-0.4737731966493099,0.13711208490119636,0.011781356925559497,0.03774005246397722,-0.4120205808449046,-0.0028893736001059213,-0.40500166692223405,-0.07212587910934701,0.3158286345183972,0.19729283349140866,-0.35302925231067794,-0.4258160573300738,0.2465768031170848,0.3994687871861494,0.04644681671780954,0.45864321048707235],[0.5651578515637188,0.021003259219112645,0.5659109222844764,0.7303966879663304,0.6009322004532367,0.12472963570833133,0.2598070577570571,0.20086783267131095,-0.26552237485597374,-0.010264581186178401,0.38543753051567153,-0.5265488348292314,0.07395911863509264,-0.3875386809347243,0.14430487789261529,-0.2860261879793431,-0.22575364593319017,0.08749866657246276,-0.2905801703887939,-0.41241292158088017,0.4044889459497413,0.14762527720407956,-0.00419653690347178,-0.5888705520437992,0.12813859794021637,-0.3031007475174071,0.0875599010213754,0.1341045629766865,0.8173445557040462,-0.19645751719312732,0.20716355054973762,-0.17255011823626287,0.3357197148946685,-0.1400005119128265,-0.27215084838373016,0.001815588027348413,0.16589776781121088,-0.5830284528631691,-0.34728907967941,-0.15202486343909435,5.375406038146869E-4,0.24898876508986442,-0.05858385002469194,-0.413283962476596,-0.01628821819822532,0.17528589238763065,0.15370044817189443,-0.4426707096049741,0.2166100555590601,-0.2056108509776932,-0.557783287227645,-0.15789997788310195,0.7260835801283729,0.47073024044093525,0.25918082943224136,0.5268235239685682,0.2410808101917047,-0.25465409384702875,0.5784440201778439,0.5223744653339001,-0.4345671366564526,0.25964549296255907,0.019506684186945913,0.01069133305839224,-0.6061138778246129,-0.44638156074130797,-0.48813384849556446,-0.05651052246425038,-0.42838156585256437,-0.5298609507071274,0.12955379750133245,-0.29429333994895424,0.4182699280010253,0.3294483633146373,0.003536591421300111,0.5438917383421873,0.6124136577510833,0.2128458672425658,0.4278728206207201,-0.20198310592441227,0.5450933653273826,-0.06784199259201935,0.09915620458632704,-0.3720131905818496,-0.4296097582996769,-0.029960102726479424,-0.2853491525768485,-0.12056551273282538,-0.2126219784970048,-0.06241680388448877,-0.4099646458141876,0.48270811991671375,0.4890766399387295,-0.2653341544448935,-0.49416538535207627,-0.31017150801555515,0.2204579644461159,0.31290432635925747,0.3166900914143579,0.10063675693456406,-0.39057283116937475,-0.574407135240155,0.38879300794324706,-0.24986328063903931,-0.28880184828908273,0.5915199561933415,0.37464072278154353,0.22442055628742302,0.026136229819332592,0.029756986416639004,-0.12653270767674712,0.26791202243854556,-0.4308509126258295,0.25587139824022875,0.3768987364549575,-0.4168311886602317,0.357887458614386,0.42629176236763444,-0.5305662681740729,-0.16880006066861203,0.22350450997513596,-0.09822887882868984,0.4056734374590742,-0.5819975991217591,0.012792050810661927,-0.5311586012600539,0.14315050358610695,-0.05180225780887412,0.29802055396125,0.24025641957347998,0.1642805324798395,0.17679486432699312,-0.607667429777268,0.10043626526004895,-0.37098501950511703,-0.6297798696688583,-0.13892791126875895,-0.06160540082461469,-0.05402424595080787,0.16517249894747338,0.16670713073877885,0.11293005595774742,-0.3237583741790122,-0.49708211216694426,-0.2029520643613107,0.10786191568587078,-0.27311728340465136,-0.16317610166745047,0.3201924639431729,-0.06910509791379588,-0.263131153937439,-0.44170299184399664,0.13668896285492005,-0.2218155017026184,0.0711656760766072,0.11315208600078934,-0.3639909154830701,-0.35157714685273483,-0.3540150499568613,-0.596499287712982,-0.18096373984561742,0.2781586820457483,0.08580331311290026,0.15125388868223394,0.2819418924548619,-0.029532150443775104,-0.11162774847011518,-0.2881020074261814,-0.20212878157200304,-0.14931850788535456,0.09108371863910729,0.43004467424598336,0.34191978447606536,0.09513091106907719,0.19320700948867137,0.5647388652607945,-0.263584917208134,0.42306196154798703,0.22943316954037063,0.44633856744494343,-0.22549899790290936,-0.6696231598673734,0.03043761062522777,0.195443195899355,0.17683855078142982,-0.14486010217713105,0.5293502640731805,0.18459207494736024,-0.3920287423329044,-0.6009484361630223,0.27391477772893436,0.0329745976522012,-0.20388483677492553,0.23809332009610132,0.6415980431658247,-0.2542367287261808,0.4766529315326913,0.4145189974224281,0.565863628040777,0.5087037848473016,0.2161777088766466,0.3939281895524781,0.4591661524723536,-0.3020035358722679,0.3904605391948479,-0.07673478226260548,-0.232443897538983,-0.5557345744932635,0.007883191233706604,-0.1394525569476635,0.3150667644653489,-0.19374633906967567,-0.477851233725384,0.2413219280512044,-0.28098890511760577,-0.6280736854593116,-0.23089247509967487,0.425039392136717,0.30540685426423814,0.44400974498987045,0.43014076411429625,0.10069193281506299,0.4829641507240806,0.5098006936082228,0.7552503603917219,0.48952444590249794,-0.14485752124748424,0.3090661530126562,0.7710381159388923,0.2899778195762647,-0.5039797721501423,-0.5644449850470387,-0.3946923529977299,-0.3207264470054544,0.2696666107678837,-0.37139599899323766,0.29300993361578387,-0.6258995768343871,0.11510633924029952,-0.5809007798678847,-0.009696020615474941,0.1254685513756489,0.469524497808685,0.3644866732380525,0.42626200331761716,-0.16515967183084948,0.05570693888696177,0.15352885839308958,0.32481747144834267,0.10972488377289295,-0.12277505088766448,0.9329579911129365,0.792818345385972,0.2711152103524394,-0.1276294654584824,0.48888353657315786,-0.23548602653003764,0.5162128739254704,0.07681650006858069,-0.3202261171461218,-0.0740238919626728,-0.016538180597955237,0.31993983941859266,-0.3777304466856639,0.026217039535911646,-0.11148953049470907,0.49604480160613523,0.5590074084073632,-0.04127181467398815,-0.18378810211563051,0.6526159694140555,0.7146269122828472,0.6122128381204401,-0.04334624523641577,0.7502927682966923,0.3150048787260368,0.14887034764075557,0.3685814736401448,-0.5622629236059419,-0.03553694603008636,0.046362582784962976,-0.43006783730606635,0.4127928856379718,0.047348344591535536,-0.48433580729347664,-0.39697744362649795,-0.5220027889170626,-0.3384821530798458,-0.22871462453377986,-0.34995997825606384,1.0378968214688025,0.44182870717517564,0.2898662333258034,0.01653205005647684,-0.4543265280164878,0.9068858002134313,0.11235397106613054,0.07155549615836147,-0.27726093742684227,0.8305892182953403,0.6125058346271995,-0.34948375721763486,-0.2408320419987062,-0.01321401970668724,0.2905820974547995,-0.0413817377952282,0.1795828668067504,-0.16404256792455807,0.5303843451102782,-0.47356540006782133,-0.07110504390921339,-0.0830674840503729,0.16679533573161393,-0.026064149519503654,0.904706274795638,0.17952399154538914,0.27063495102424967,0.18229227848983037,0.2850133937783698,0.48761763097789856,0.29740649256380786,0.4858707643381361,-0.38258254696977995,0.9090077289171852,0.6232520630593968,-0.43324904555533533,-1.1029940206440316,0.16889333239600737,0.2063655422765439,-0.013427697573175749,0.0931093692521071,0.002206038118171823,0.2418140796545288,0.054784486765810686,0.21537811134256862,-0.18162245130527363,0.022754927822653842,-0.055260370710308725,0.5818072024928792,0.19455397224749255,-0.17666675519477898,0.40168217169748827,0.04058987896631762,0.6239325295547385,0.5522239199428911,0.5616309911541268,0.41854450490179834,-0.24702619195941644,0.12674076639510454,0.19578325756613055,-0.41149327024253346,-0.2771471022649477,-0.22159696395818615,0.22890667665516978,-0.5404589478963472,0.011615750585895637,-0.22975512375824092,-0.24192804337540072,0.0774507515781979,-0.2970597246043366,-0.3737282608048597,-0.6232056175231533,0.610205965254366,0.001376427138548582,0.23230855713702392,-0.34981842086977816,-0.5870575630169987,-0.32771097795941845,-0.16101957113106663,0.24279475501759598,-0.21608544437367608,0.22970850216556918,-0.5421491967630437,-0.8351427401693887,-0.4829015341410815,0.16219660839900782,0.31742039984714254,-0.31674129885572455,0.10649913021963786,-0.4321369863249901,-0.33564852612744245,-0.0823088962642724,-0.022879372974264178,-0.19421358290130084,-0.26728311515278924,-0.13580517240538514,0.6310920949558709,-0.05091661467567045,0.20230656677065448,0.4494505409173493,0.617255877239846,0.18311452532987382,0.89694545532096,-0.04032574613483929,0.21642459726461127,-0.00578349066020933,0.08359583416245804,-0.5882269922854848,-1.0237791764874389,-0.4982995177999414,0.10434080864987877,0.009430312466218161,-0.37201703359551347,0.21070033310717076,-0.0015097700927824613,-0.3993661854860809,0.07378880650639162,-0.06053929447385123,-0.3405622346038324,0.10699601755800286,-0.24163780359154222,-0.4282267821534734,0.5597682275056239,-0.22202181668771725,0.5803195114232907,0.3863392956970661,0.36460563242237615,0.4768618120128716,0.37480269636124086,-0.3998334873008688,0.35215847479073664,-0.9572618934801871,-0.42190106270356664,-0.44478106089603975,-0.07919776700170397,-0.3215618827639366,0.40433544527372867,0.15624580549808015,-0.431246957085083,0.19394649185783627,-0.47202779566270947,-0.5769713066618083,-0.046683118852415904,0.1987793226708145,-0.17975784150311294,-0.45025308915354517,0.05348802622185852,-0.18697344236172397,0.21090084445293875,0.36636336250735935,0.321567871919759,-0.041495926309661584,-0.3247098540356,-0.0019205539992379335,-0.26145250713691,0.020554314555505486,-0.7584119986295542,-0.3088748831964105,0.07366106738475145,0.13460089395228064,0.4561955599101457,-0.08754076894684422,-0.21581328664991975,0.30105745715213933,-0.047522897132221485,-0.2862904497495986,-0.15822084900504302,0.06005505152788933,0.014212977924611183,0.33837709497658797,0.26779137456435814,0.4120149159619298,0.4850443299338514,0.4501186844350192,0.671569157966595,-0.06784546862171104,-0.20840630885494466,0.40356429270714717,0.12475422966921669,-0.34865065608438517,-0.3065370566951015,-0.6125488358807664,-0.6572179381998294,0.28250073219770827,-0.19632231757941754,0.15122740898743728,-0.4958963115110719,0.4110707071559393,-0.11866303963871637,0.2029923843642818,-0.15731085850521404,0.18434498914412678,-0.10809364700004005,-0.15961797334971037,-0.1335182750372903,0.4235580764326458,-0.15785325664784425,0.378564309340205,0.8520454669151016,-0.14394246804510713,0.32042024706742467,0.21025101144590141,-0.5192975587995341,-0.06503809506035405,0.11175543453206992,-0.03630449664375039,0.41094519735024587,-0.2802144866303016,-0.3050392766054199,0.5348675894133933,-0.050284061663096555,0.16913006389006738,-0.13677323977788974,-0.15587395592186004,-0.0416966726761518,0.05887068043485876,0.7876230757363684,-0.013509685553673255,0.20356328156584097,0.18748576928567925,0.28589459345265394,0.514853368558902,0.5532283591825683,-0.08314687495733299,-0.19421800817998625,0.3821080935356794,0.3154745968341938,-0.07188728782078761,-0.17849725684250653,-0.6399477113866424,0.3873787791305811,-0.20322312885192378,0.3339149158303621,-0.24210357548818487,-0.003321313461842497,0.21886711439286807,-0.37167599774376725,-0.3047014827440273,-0.34565215670863964,-0.27518582154048876,0.555704292943507,0.4528580756511677,-0.3538322976289505,0.5190289093657745,0.6292413406402226,-0.19858845719971224,0.17593109431410114,0.4067098252294099,-0.1580745692352498,-0.05669673800594975,0.08124903657566442,-0.5473193625327066,-0.7334391270937137,-0.0525729997879516,-0.616461820306668,0.2768328094284645,-0.4666068254241496,0.5051227916316243,0.08844752412823864,0.06300043525142072,0.2888673743853226,0.3249407853214429,-0.35231725135818,-0.09228849742124232,-0.04129521326221175,-0.0656840792712565,0.03430531103267492,0.395416967632471,0.28608403187006476,-0.3374202097254698,0.6029255043768987,0.37668630582408213,0.32449856216522216,-0.013586585681344935,0.13707940253898016,-0.2949649579875231,-0.5979143799425929,0.07276189840008966,0.4988755742185315,-0.08126701923339802,0.483613791291447,0.43387623967511774,-0.4298254279316687,0.30006089953390597,-0.03997909714153724,0.14219614820202542],[3.9114319577563137,2.8693769055718965,0.1686353063344431,6.166222686358483,5.514993918722744,1.2188268119756884,0.586273547457165,2.3737422684879506,2.444489972061318,1.7114230579288563,-1.403009986784581,-3.5144359433759393,1.295202147820382,-5.858432740076733,-2.131548425320651,0.22252013211718752,-0.45164236547360076,-2.8607297788141888,-0.45852111756002945,0.3102985747669366,0.40625741077990757,1.2793693907230073,1.1594968272060617,-0.9248655818732033,1.0184387029527675,-0.2764371426985004,-0.7985059330309371,4.328578166005432,6.737736970299849,3.339872841487244,0.7082945427921942,3.696165110097924,-1.5602890837752428,-0.04205397556818834,-0.2281269055319006,-2.346507913395009,1.4905155490363349,-5.742350093219244,-2.211986450840246,-0.10524021202408919,-2.0249597241293302,-2.9931779336035502,-0.7813622441512817,-0.23423873172975018,0.7954250126113184,1.615929377395124,1.695156592036999,-0.9540063372593898,0.3214492961152964,-3.102517560011096,-1.4007227339540524,3.333764725137868,9.362902367614208,3.1101117995715404,1.1713384349721845,2.633424946496419,0.42240400435110287,-1.3658463271448296,-0.41417976142260216,1.4896095827000033,-0.5579286351620942,-1.8695994819607054,-2.1671847804759676,-0.6615206148567295,-4.071519605663867,-3.0047246285449343,-1.129261466239346,0.5895819498956894,1.3881468256783174,-0.6296184253365356,0.6881934967334895,-1.6319309180001773,2.751166573264915,0.8453744843454256,-1.24837919392303,4.7195937437221325,7.176882676274826,3.8396653127889446,-1.4370964747460917,3.2973112804767433,0.2922584899138019,2.025023333228745,-2.9361937227986363,-0.9478654854263092,-1.6166707953498258,1.4635199121444704,-1.6292098024283364,-1.743082771629221,-2.867960791992851,-2.316163994498227,-0.12872666560470775,0.41583539880748255,-0.4826754549062649,-0.39408278810914,-0.5103991419598516,-0.9954525884333753,0.5444131329713973,0.06762775458897756,-1.4812117596419272,3.30263039549007,4.5206249948238355,-1.4492840510310538,-0.7004832971448899,1.1468511662601888,1.203683606859846,4.104036230397392,2.0827703851025925,-2.620758023629412,-1.9246634612580051,-2.918446126420678,-1.3487708559500693,-2.1690421497390644,-4.484072329010123,-3.3179592755773637,-1.8142021000835031,-0.5960368940873649,-0.9896859748879278,-0.5227952744582636,-1.6859238970073132,-1.819029942241446,1.0540255241681515,0.29490214928079816,-0.3423156836796378,-1.7106621020982968,-0.1856357861521845,-2.0709958063340603,-1.2451795084111539,-7.147408389482312,0.654764758752742,4.824335127249048,-1.6441899312761823,2.5328125744010412,2.6346228545021186,-2.5994734910974335,-5.3173885189874275,-1.5342781191670463,-4.3838870206484435,-1.0079157083944068,-1.2392145348820527,-1.2354541611958292,0.9323079055390965,-1.3161297646360863,-2.2476945332205616,-2.1803197802643255,-2.306808966294106,-2.1360778967050313,-1.9486916051151641,3.903008350677008,0.49256839973640415,-3.2089554204590036,0.34457397958032465,0.40058816060267716,0.08435522059454649,1.340816121958149,1.5399739342297574,1.2349188017765624,-0.7569399389287857,-3.3285177994670474,-6.893754443517698,-3.636310647793433,-0.8908961557855486,-1.3190470441426647,-0.8608510990820404,0.5753124864407182,0.7594924002858168,-0.6675945679243633,-0.7770218066203062,-2.204347293215341,-1.0345061311774773,0.552236218357553,-1.3622057350510066,3.2093654123348068,3.30401886604648,-1.9443417624479797,0.49794461872306717,1.2996764386359216,-6.256207793203908,2.9754823494897127,1.3065787601262229,6.490006889654652,7.126427834662735,-0.4563543778316208,-2.444659669285172,2.822548271795402,-0.2405832344095663,-3.0334325781123903,0.9760470804099621,-2.3904232943098735,0.6504419020061345,-1.1993114008335979,-0.1539290517706627,-1.6827299056181595,1.035135058031662,2.28886297344168,-0.0010976553320617122,2.7252849008071953,1.3382314990384265,-0.5772684933958742,1.935459776932486,3.0497748076899054,0.4401908486708639,2.553717763565223,-1.4785303050871361,0.6624626362154563,5.343875968370946,-3.8654289080134627,-4.639177575170375,0.30064193415545143,-0.3173186604922369,-0.6654408635653736,0.9967741449223012,-2.8341642109213354,-2.214596965860147,-1.6159890635990155,-0.7156379680318291,-3.0485255655890704,-2.553018459931734,4.164121090245709,1.3731699178478403,2.864361412229254,2.8588117582997743,0.8881811999657852,3.330630923995116,2.598982457230444,0.6550562331571105,4.642555113659712,0.10780559156562315,8.792802731052756,13.155447509381473,0.7636137931688293,-1.2314203153979737,-2.1600916447347003,-1.9237157383656998,-0.7436147018550402,-0.4536931641275155,-0.11759918818696544,-3.035427173433129,-2.2524632646610407,0.9278660291342677,-3.231112780668643,-3.504354331611202,3.7876180340001087,0.34735300166624616,3.122392294112149,4.015836251853736,-2.54434243086491,1.417861006585544,2.8300199230131367,1.6371388567505012,4.058563203959554,1.878219260368576,9.730805890066938,20.240467818369396,0.7218395636011912,-2.3901077080600057,2.0503274298942986,-0.12304973070966825,-0.7517392335645757,0.7534160826015363,1.0463649597706026,-1.0385493084498618,-1.1151759080420252,1.1057271297242905,-2.7994265465404893,-1.3614368550340445,2.2255932019167943,-2.3474249283371504,3.4561198123761883,-3.6866159966401693,-1.229280589555562,5.270609956471785,2.119954935080688,2.1497971666868887,1.436436871952947,-1.1192328815663826,8.361388753691903,14.051716334625265,0.7288779019397348,-3.752250452000401,0.9814282600858787,1.0953188691540392,-0.027989160791297155,1.02073830345136,0.5424457963744604,-1.8789875938978577,-1.7935373382535365,-2.8241383289294104,-8.330020733158218,-4.993357530806881,5.599520805464654,1.8780370887204565,3.0468667410231243,2.57008705592626,-0.07748234139934211,-1.6351063112675968,4.513134321612274,0.43406492552158543,3.3887492489211737,-2.1627963635275558,3.9261288821072244,22.122024364550203,-1.1949522974975861,-0.3670239185785171,5.521951683377432,2.239554102463023,1.5442352718734504,0.7953119940464953,2.2245511767919743,-0.32435967379477443,-1.4875453766925215,0.6696258305501971,-3.455682805958344,-2.2289148218627695,-1.4048171987434561,4.000950281908007,4.56692061460884,4.426553647691747,3.576383096799315,1.3511270580098593,3.2315417100660513,0.9891156732357783,3.216424878072029,-0.459327284171887,9.22819820288485,19.888683389878526,3.414207582363524,-1.1858174288197376,2.662386782743256,-1.192197672800472,-0.0667979334705738,1.5598013445668282,1.2263354687286083,-0.06001199756900491,-1.8062088484674845,1.0138876233757312,-4.409867268396474,-4.010832450582471,3.003912390647562,0.7748047035085845,0.0062359596090799975,2.476614829890465,-0.2329309043724321,-0.3140061237394269,-1.2886433779855662,-0.8880202888290185,3.534247417140466,-4.875466685490302,-6.2074514337309985,10.78204700994218,3.6503062500521617,-3.9315574182978215,1.378422544648332,0.8257292962884741,-0.03648538748902965,-1.28458974879005,1.5085711613565658,-0.021463080781373375,-2.144339083107061,-1.0263766357475523,-5.275253660989334,-4.65319590082309,-2.7344460768075587,0.4403451679497483,3.0234229562316433,4.1129809535763835,2.6870973705548855,-1.8679470491376242,-2.4968051186351814,-1.8474371122134603,-0.8307382614267886,-4.2676716852082315,2.0325017771123566,1.049729532221707,-6.652327739265985,-3.3202193707132692,-0.8172558063826968,0.03828165774766227,0.0965640053184701,1.2480004806565053,1.1551453017499986,-2.2083412339431114,-2.647685327346259,1.9327342926460842,-2.5107102049808776,-2.6498325135739975,1.9951236808417407,0.8177632845433545,1.5124317529059992,2.321094873801588,1.3946222857092425,1.5840574327162542,2.329018772854691,-0.0835888253135466,0.11620918912960015,-2.8646074608048546,-0.47528286789717544,5.722650694902926,-7.252684081265812,-5.523445317031526,0.9253812850714661,-2.048782734508863,-1.3638356239073393,-2.9121663732276857,-1.6173791641932562,-3.1866076474674525,-2.1587109299184326,1.0022729033834188,-2.0373787563116186,-4.67366140923338,-1.2611756938736274,-4.096678228833443,-2.4363741573008686,3.202398330566439,0.8873246652491296,0.4265304993538853,0.33241980772978114,-1.0236900720751254,2.914413040001215,-3.7884167399079423,4.8176854005859635,2.0475891935253485,-14.167755760764196,0.025383668295717515,-1.1276861738958297,-0.9306020514950264,-1.1115012289428479,0.09289559116036761,0.09743566320142272,-2.290430492929824,-2.0147867575941834,1.4003115037507854,-1.3290482336757068,-2.9272696657422066,1.6038490702856776,-2.338817202911261,-1.3514700282418763,4.714775867974769,1.8926042777609633,-4.407932030821777,2.3082293137849996,-0.3735542950213257,2.4303876129842017,-3.175579615871276,1.2961621971162132,7.529018833746107,-6.3593124475403355,-2.293465799249107,0.2156458574910306,-2.653283734171316,-1.612204448867079,-1.4579878911118336,-1.4977465872957434,-0.9277249406750964,-1.311930530907166,1.4441303680128024,-0.4865159767352819,-4.506076595574219,-1.6929181316804973,-3.093939363170345,-0.5411819087102385,2.685503543040104,0.059900026872051315,3.950053744896336,2.489381616063787,1.1227978374933256,-0.2774487588781178,-2.6754304341019632,3.497561709546384,4.954574888484184,-3.141952762996629,1.862576141904233,-0.4726859052744838,-5.208237933417396,0.53455203725747,-0.553054071168857,0.8639911502483796,-0.5313991183898794,0.18232657674168787,-0.3387905181456097,-1.0096120415818823,-6.076911099714645,0.08709564581376086,0.637939003244005,-1.4746979266902482,2.519971386441191,4.0380785888466395,1.8797626103411875,3.555178709783143,1.4827346660864122,-2.716504576541889,-1.9514992846340826,6.481777689707534,1.232827665870798,0.2889870449425036,-0.3217574224504865,-0.7122265216027529,1.6206578964892961,-0.5332622527085475,-1.6343315331536918,0.8993188733325492,0.5895252984891,0.44746395782467696,0.22777998123089155,-1.9124279210901738,-3.2163684026013493,-4.090566072107615,1.4188699206187882,-0.5357159957726817,3.141359000679681,0.7089942035424167,-2.5995507785275302,2.3249884854392517,0.023253946139510116,-1.9053477194712793,-2.339677513568671,4.3176389792587395,0.37992339914710976,-5.023404003906349,-3.7222563353587566,-2.362610609722958,1.6930706863351201,0.4856400969532745,0.9633813697098612,1.5111580194405376,-0.024748179152634216,-0.9264212398329553,0.5341610798231232,-0.637600741603494,0.17319029648118514,-0.4538473393389918,0.5482206787331999,-0.6082563363669294,3.5864782189068913,3.355550527258559,3.610335974282383,3.1031482204863847,2.247000728796526,1.9070576412883844,0.004859860492468903,6.162768214087684,-0.499865567460324,-2.469079433316575,-0.8769160521471595,-1.8169937469260637,-1.699869343696424,-0.8567815551215174,-0.24999256672590514,0.8857917870501423,-0.3868805303158286,-0.2704059294627385,1.0128306980115755,-2.448748271773685,-1.732434810003596,-3.1985751649391263,-2.571352042158413,0.295549136299528,3.4705238685996878,1.029776954223176,1.0032621879685468,1.4145478541116112,1.799630854118489,0.3814803936355992,-0.9689748242516226,-0.3220626733900623,3.4393336737719116,-1.4753301552207683,-1.9096821472298684,-2.6962578980269387,1.7754541931150456,0.04664967540398209,-0.5007419576206167,-0.057140631017177305,-0.30889187095660364,-0.27765447802214877,1.8020330205377575,-1.8826723380369614],[0.19081086132797698,0.19961441593048596,0.3348728511393217,0.26675130385931783,0.15276489308224184,-0.38428247965508777,-0.4052366505722945,0.056968287722807064,0.07577754401472761,-0.1136557999526205,-0.2914554651348599,-0.07091928515535971,-0.40508898731423915,0.27111920569879794,0.4054099766463388,0.03618700626964223,0.4746181022482605,0.6199586797762463,0.03629360205732931,0.39028669402139177,-0.11599018567379686,0.2022774012993934,-0.030805462808178048,0.4692511405555297,0.305837762275,-0.21307859425156492,-0.21393480792078134,-0.19303761959132554,-0.014012585714628576,-0.30373066233045637,0.12957922808325414,-0.3238655524037686,-0.37012049157091836,0.20162164735584653,-0.14784190765009503,0.3059855899976524,0.05373368777357583,-0.17391572405826858,0.3645903538372832,-0.2262349534496967,-0.18908136816560736,0.4091916689046793,0.5488288564668291,-0.010347481820904432,-0.11998521928779711,-0.4124885321535788,0.13430866061536917,0.4822484149876662,0.3420632509308005,0.1099062108753449,-0.44267662565356075,0.25919273089874256,0.3135854878421392,-0.282022990184264,0.08202712897406815,-0.3313900034859882,0.10778198511253868,0.12659883388553522,0.3864894472558246,0.09372635402088558,0.3928117882339358,0.32421221335816763,0.6016358486627686,0.5979057204252842,-0.33115189820720736,-0.26958958421372925,0.5292161844487322,-0.09106769580749252,0.28383478051307476,0.20821990168857096,0.1519665081758295,-0.2402763939014923,-0.237946119385116,0.0038726329153901855,-0.298379557234569,0.17168281284371542,-0.4020408609812818,-0.38382172726338937,-0.30636962522148903,-0.34405891457731863,0.2577965935649951,0.22753618334738265,0.3476928334578552,-0.31802551471862106,0.48316925988403364,0.25020947803421173,-0.0670332202959501,0.5733595641414156,0.29264096539772433,0.36657249814377246,0.08099918143349567,-0.4327950332303036,0.34268010362812945,0.40339986331494143,-0.34925122371315726,-0.19929113866748516,0.1295092013780108,0.18518271831588848,-0.3005368776971471,0.2999652569937823,-0.19182212525080897,-0.3025724473180909,-0.46457163948341007,0.31865897033363183,-0.15305468761592952,-0.1013393022191638,-0.30646524141024545,0.030243816049335796,0.6778861852133907,-0.08906261983342315,-0.012819061875755041,-0.18499839951965638,-0.0893883596140988,-0.09834145087184497,0.42735516702868603,-0.043719928450858744,-0.31545805391832865,0.2833257248024493,-0.3743357249544034,-0.16212667147217338,0.1499814292754157,0.37310787449807237,0.44510613582396386,-0.007010201571275454,-0.038851118512741825,-0.17432740963277607,0.3558296354555628,0.22969790488049965,-0.3512011725002029,-0.4334468525477819,0.03197728047212386,-0.13860773330556558,0.4136856141266465,-0.27181687408698235,0.573618003818235,0.34675928496317376,-0.06460324731109438,-0.10222728081584868,0.15547859558214325,0.5339855963418201,0.008050134309562975,-0.3421216371267318,0.07314697733007533,-0.008728527985894305,0.5264146273828647,-0.15871722477522637,-0.08508678307255828,0.2922189877500592,0.14986666374107463,-0.30361966051709566,0.10844972241711566,-0.10646380760446271,-0.5132886757015728,-0.24632448605452004,-0.283328124434956,0.1211106496888153,0.7026142192322666,0.25332607300349974,0.09988726948247592,0.4178109093229886,-0.24514240419617425,0.3983669376513032,0.4957019382904614,0.25106315616598085,-0.17537373289405092,-0.1299729765919704,0.10423659449575097,0.10897051568235731,-0.16287579201753724,0.10643373642082499,-0.07750407704666001,0.019018454007309983,-0.2931343143850535,0.4486769867433647,-0.4738877909556052,0.0970396890047636,0.06287222090918244,-0.30523829687440956,0.31066068928070184,0.19763315605911141,0.4322365334264054,-0.3905209097410155,0.5935132311993453,-0.2988145405958488,0.041782548844939996,0.4441861074505498,-0.011353088937523497,0.24632286945328455,-0.38362543717892844,0.3320012017144187,-0.43589661020624726,-0.06998043910886749,0.12533678697188794,0.17999274574773083,-0.24872132998337834,0.04429184245180237,-0.4023342408415234,0.5333024493655761,